<?xml version="1.0"?>
<opencv_storage>
<opencv_ml_knn>
  <format>3</format>
  <is_classifier>1</is_classifier>
  <default_k>10</default_k>
  <samples type_id="opencv-matrix">
    <rows>152</rows>
    <cols>100</cols>
    <dt>f</dt>
    <data>
      0. 0. 0. 0. 4. 255. 255. 255. 0. 0. 0. 0. 0. 0. 255. 76. 255. 127.
      0. 0. 0. 0. 0. 236. 178. 0. 255. 127. 0. 0. 0. 0. 255. 255. 0. 0.
      255. 127. 0. 0. 0. 129. 255. 14. 0. 0. 255. 127. 0. 0. 98. 255. 0.
      0. 0. 0. 255. 127. 0. 0. 255. 229. 0. 0. 116. 0. 255. 210. 0. 116.
      255. 255. 255. 255. 255. 255. 255. 255. 255. 198. 0. 0. 0. 0. 0.
      0. 255. 127. 0. 0. 0. 0. 0. 0. 0. 0. 255. 255. 0. 0. 0. 8. 255.
      255. 255. 255. 255. 255. 8. 0. 140. 255. 226. 0. 0. 0. 0. 226.
      255. 21. 226. 255. 0. 0. 0. 0. 0. 64. 255. 140. 0. 0. 0. 0. 0. 0.
      0. 131. 255. 0. 0. 0. 0. 255. 255. 122. 255. 226. 0. 0. 0. 0. 0.
      115. 115. 115. 136. 255. 255. 77. 0. 0. 0. 0. 0. 0. 0. 0. 147.
      255. 226. 214. 0. 0. 0. 0. 0. 0. 89. 255. 157. 255. 64. 0. 0. 0.
      0. 54. 255. 157. 0. 8. 255. 255. 255. 255. 255. 255. 8. 0. 0. 13.
      255. 255. 255. 255. 255. 194. 0. 0. 157. 255. 54. 0. 0. 0. 32.
      255. 255. 0. 255. 89. 0. 0. 0. 0. 0. 48. 255. 140. 255. 89. 0. 0.
      0. 0. 0. 0. 255. 180. 255. 255. 29. 0. 0. 0. 0. 150. 255. 255. 63.
      255. 255. 140. 140. 140. 255. 220. 89. 255. 0. 0. 67. 89. 89. 89.
      0. 0. 255. 140. 105. 67. 0. 0. 0. 0. 0. 48. 255. 140. 255. 255.
      64. 0. 0. 0. 38. 255. 255. 0. 0. 13. 255. 255. 255. 255. 255. 10.
      0. 0. 0. 0. 0. 1. 97. 255. 255. 255. 255. 255. 6. 136. 255. 255.
      242. 217. 11. 64. 255. 255. 201. 255. 207. 0. 0. 0. 0. 64. 255.
      255. 0. 0. 0. 0. 0. 0. 0. 64. 255. 255. 0. 0. 0. 0. 0. 0. 0. 64.
      255. 255. 0. 0. 0. 0. 0. 0. 0. 64. 255. 255. 0. 0. 0. 0. 0. 0. 0.
      64. 255. 255. 0. 0. 0. 0. 0. 0. 0. 64. 255. 255. 0. 0. 0. 0. 0. 0.
      0. 255. 255. 255. 0. 0. 0. 0. 0. 0. 0. 255. 255. 255. 255. 255.
      255. 255. 255. 255. 255. 255. 255. 255. 0. 0. 0. 0. 0. 0. 0. 19.
      255. 140. 0. 0. 0. 0. 0. 0. 19. 255. 210. 0. 0. 0. 0. 0. 0. 0.
      255. 255. 0. 0. 0. 0. 0. 0. 0. 231. 255. 0. 0. 0. 0. 0. 0. 0. 0.
      255. 195. 0. 0. 0. 0. 0. 0. 0. 255. 170. 0. 0. 0. 0. 0. 0. 0. 236.
      255. 0. 0. 0. 0. 0. 0. 0. 191. 255. 13. 0. 0. 0. 0. 0. 0. 166.
      255. 60. 0. 0. 0. 0. 0. 0. 0. 255. 255. 255. 255. 255. 255. 255.
      255. 140. 0. 255. 64. 0. 0. 0. 0. 0. 0. 0. 0. 255. 64. 0. 0. 0. 0.
      0. 0. 0. 0. 255. 0. 152. 179. 179. 179. 0. 0. 0. 140. 255. 255.
      255. 37. 37. 255. 255. 246. 0. 126. 229. 0. 0. 0. 0. 0. 57. 255.
      140. 0. 0. 0. 0. 0. 0. 0. 0. 205. 255. 255. 255. 0. 0. 0. 0. 0. 0.
      255. 198. 42. 255. 255. 0. 0. 0. 0. 198. 255. 140. 0. 17. 198.
      255. 255. 255. 255. 198. 0. 0. 0. 0. 26. 255. 255. 255. 255. 255.
      0. 0. 0. 73. 255. 80. 0. 0. 0. 191. 255. 166. 0. 255. 96. 0. 0. 0.
      0. 0. 134. 210. 166. 255. 0. 0. 152. 179. 179. 0. 0. 0. 166. 255.
      236. 255. 60. 26. 129. 255. 254. 0. 246. 255. 0. 0. 0. 0. 0. 0.
      255. 166. 166. 255. 0. 0. 0. 0. 0. 0. 13. 255. 0. 255. 0. 0. 0. 0.
      0. 0. 255. 210. 0. 73. 255. 179. 0. 0. 0. 236. 255. 50. 0. 0. 83.
      255. 255. 255. 255. 255. 0. 0. 0. 0. 0. 0. 0. 0. 255. 255. 0. 0.
      0. 0. 0. 0. 23. 255. 140. 255. 0. 0. 0. 0. 0. 0. 255. 102. 0. 255.
      0. 0. 0. 0. 0. 255. 252. 0. 0. 255. 0. 0. 0. 0. 255. 201. 0. 0.
      102. 255. 0. 0. 0. 102. 255. 0. 0. 0. 0. 255. 0. 0. 194. 255. 0.
      0. 0. 0. 0. 255. 0. 0. 153. 191. 191. 191. 191. 191. 191. 255.
      191. 191. 0. 0. 0. 0. 0. 0. 0. 255. 0. 0. 0. 0. 0. 0. 0. 0. 102.
      255. 0. 0. 255. 255. 255. 255. 255. 255. 255. 255. 255. 255. 91.
      7. 0. 0. 0. 0. 0. 0. 255. 91. 0. 0. 0. 0. 0. 0. 0. 239. 242. 0. 0.
      0. 0. 0. 0. 0. 255. 255. 0. 0. 0. 0. 0. 0. 0. 114. 255. 41. 0. 0.
      0. 0. 0. 0. 0. 255. 140. 0. 0. 0. 0. 0. 0. 0. 253. 217. 0. 0. 0.
      0. 0. 0. 0. 255. 255. 0. 0. 0. 0. 0. 0. 0. 169. 255. 17. 0. 0. 0.
      0. 0. 0. 0. 255. 115. 0. 0. 0. 0. 0. 0. 0. 13. 255. 255. 255. 255.
      255. 140. 0. 0. 166. 255. 217. 0. 0. 0. 0. 217. 255. 127. 255.
      255. 0. 0. 0. 0. 0. 0. 255. 128. 0. 0. 0. 0. 0. 0. 0. 127. 255.
      127. 0. 0. 0. 0. 0. 0. 115. 255. 140. 0. 0. 0. 0. 0. 0. 255. 255.
      115. 0. 0. 0. 0. 0. 38. 255. 217. 0. 0. 0. 0. 0. 0. 191. 255. 191.
      0. 0. 0. 0. 0. 89. 217. 255. 0. 0. 0. 0. 0. 0. 0. 140. 255. 255.
      255. 255. 255. 255. 255. 255. 255. 0. 0. 29. 255. 255. 255. 255.
      38. 0. 0. 0. 206. 255. 140. 0. 0. 21. 255. 255. 63. 0. 255. 64. 0.
      0. 0. 0. 0. 255. 140. 0. 255. 255. 0. 0. 0. 0. 64. 255. 140. 0. 0.
      124. 255. 255. 255. 255. 232. 0. 0. 0. 224. 255. 114. 4. 0. 89.
      255. 255. 91. 140. 255. 3. 0. 0. 0. 0. 0. 97. 255. 140. 255. 0. 0.
      0. 0. 0. 0. 89. 255. 63. 255. 255. 140. 0. 0. 21. 169. 255. 140.
      0. 0. 38. 255. 255. 255. 255. 201. 25. 0. 255. 255. 255. 255. 255.
      255. 255. 255. 255. 255. 0. 0. 0. 0. 0. 0. 0. 0. 185. 197. 0. 0.
      0. 0. 0. 0. 0. 223. 255. 32. 0. 0. 0. 0. 0. 0. 134. 255. 121. 0.
      0. 0. 0. 0. 0. 172. 255. 83. 0. 0. 0. 0. 0. 0. 83. 255. 172. 0. 0.
      0. 0. 0. 0. 0. 255. 255. 0. 0. 0. 0. 0. 0. 0. 255. 255. 0. 0. 0.
      0. 0. 0. 0. 197. 255. 57. 0. 0. 0. 0. 0. 0. 127. 255. 127. 0. 0.
      0. 0. 0. 0. 0. 0. 38. 255. 255. 255. 255. 38. 0. 0. 0. 255. 255.
      140. 7. 7. 140. 255. 206. 0. 226. 255. 0. 0. 0. 0. 0. 0. 255. 255.
      255. 89. 0. 0. 0. 0. 0. 0. 89. 255. 140. 255. 22. 0. 0. 0. 0. 0.
      255. 255. 0. 197. 255. 179. 166. 166. 179. 255. 147. 255. 0. 0. 0.
      13. 243. 243. 11. 0. 89. 255. 140. 255. 16. 0. 0. 0. 0. 0. 255.
      226. 0. 255. 255. 140. 0. 7. 140. 255. 206. 0. 0. 0. 38. 255. 255.
      255. 255. 38. 0. 0. 0. 0. 0. 1. 26. 175. 255. 255. 255. 255. 11.
      157. 255. 255. 228. 179. 9. 198. 255. 255. 255. 255. 159. 0. 0. 0.
      0. 255. 255. 255. 0. 0. 0. 0. 0. 0. 0. 255. 255. 255. 0. 0. 0. 0.
      0. 0. 0. 255. 255. 255. 0. 0. 0. 0. 0. 0. 0. 255. 255. 255. 0. 0.
      0. 0. 0. 0. 0. 255. 255. 255. 0. 0. 0. 0. 0. 0. 0. 255. 255. 255.
      0. 0. 0. 0. 0. 0. 0. 255. 255. 255. 0. 0. 0. 0. 0. 0. 0. 255. 255.
      255. 0. 0. 255. 255. 255. 255. 255. 255. 0. 0. 0. 255. 255. 0. 0.
      0. 0. 255. 255. 0. 153. 255. 0. 0. 0. 0. 0. 0. 255. 153. 46. 255.
      179. 0. 0. 0. 0. 179. 255. 46. 0. 0. 255. 255. 229. 229. 255. 255.
      0. 0. 15. 255. 229. 0. 0. 0. 0. 255. 255. 15. 255. 255. 0. 0. 0.
      0. 0. 0. 255. 255. 255. 153. 0. 0. 0. 0. 0. 0. 255. 255. 153. 255.
      179. 0. 0. 0. 0. 179. 255. 153. 0. 20. 255. 255. 255. 255. 255.
      255. 20. 0. 0. 17. 198. 255. 255. 255. 255. 26. 17. 0. 42. 255.
      255. 27. 0. 0. 27. 255. 255. 0. 198. 255. 0. 0. 0. 0. 0. 0. 255.
      140. 0. 0. 0. 0. 0. 0. 0. 198. 255. 42. 0. 0. 0. 229. 229. 229.
      255. 255. 17. 0. 0. 0. 0. 0. 0. 0. 34. 236. 255. 14. 0. 0. 0. 0.
      0. 0. 0. 0. 205. 255. 198. 172. 0. 0. 0. 0. 0. 0. 89. 255. 140.
      255. 198. 0. 0. 0. 0. 198. 255. 140. 0. 17. 198. 255. 255. 255.
      255. 255. 26. 0. 0. 255. 255. 255. 255. 255. 255. 255. 255. 0. 0.
      255. 0. 0. 0. 0. 0. 0. 0. 0. 153. 255. 0. 0. 0. 0. 0. 0. 0. 0.
      153. 255. 0. 0. 0. 0. 0. 0. 0. 0. 153. 255. 229. 255. 255. 255.
      255. 255. 184. 0. 138. 229. 0. 0. 0. 0. 0. 0. 255. 153. 0. 0. 0.
      0. 0. 0. 0. 0. 255. 183. 204. 255. 0. 0. 0. 0. 0. 0. 255. 204.
      153. 255. 179. 0. 0. 0. 0. 255. 255. 0. 0. 20. 255. 255. 255. 255.
      255. 255. 20. 0. 0. 0. 255. 255. 255. 255. 255. 255. 128. 0. 0.
      255. 255. 0. 0. 0. 0. 255. 255. 128. 128. 255. 0. 0. 0. 0. 0. 0.
      128. 128. 255. 128. 0. 128. 255. 255. 255. 0. 0. 0. 255. 128. 255.
      255. 128. 0. 255. 255. 255. 0. 255. 255. 0. 0. 0. 0. 0. 0. 255.
      255. 255. 255. 0. 0. 0. 0. 0. 0. 128. 255. 128. 255. 0. 0. 0. 0.
      0. 0. 128. 255. 128. 255. 255. 0. 0. 0. 0. 255. 255. 128. 0. 0.
      255. 255. 255. 255. 255. 255. 128. 0. 0. 0. 255. 255. 255. 255.
      255. 255. 0. 0. 140. 255. 255. 0. 0. 0. 38. 255. 255. 0. 255. 255.
      0. 0. 0. 0. 0. 0. 255. 140. 255. 89. 0. 0. 0. 0. 0. 0. 255. 255.
      140. 255. 0. 0. 0. 0. 0. 64. 255. 255. 0. 255. 255. 255. 13. 255.
      255. 191. 89. 255. 0. 0. 0. 255. 255. 255. 0. 0. 89. 255. 140.
      255. 0. 0. 0. 0. 0. 0. 255. 140. 140. 255. 255. 0. 0. 0. 38. 255.
      255. 0. 0. 0. 255. 255. 255. 255. 255. 191. 0. 0. 0. 0. 255. 255.
      255. 255. 255. 255. 128. 0. 0. 255. 255. 0. 0. 0. 0. 128. 255.
      128. 128. 255. 128. 0. 0. 0. 0. 0. 255. 128. 0. 0. 0. 0. 0. 0. 0.
      128. 255. 128. 0. 0. 0. 255. 255. 255. 255. 255. 0. 0. 0. 0. 0. 0.
      0. 0. 0. 255. 255. 128. 0. 0. 0. 0. 0. 0. 0. 0. 255. 255. 255.
      255. 0. 0. 0. 0. 0. 0. 128. 255. 128. 255. 255. 0. 0. 0. 0. 128.
      255. 255. 0. 128. 255. 255. 255. 255. 255. 255. 128. 0. 0. 255.
      255. 255. 255. 255. 255. 255. 255. 140. 0. 255. 64. 0. 0. 0. 0. 0.
      0. 0. 0. 255. 64. 0. 0. 0. 0. 0. 0. 0. 140. 255. 64. 76. 89. 89.
      89. 67. 0. 0. 140. 255. 255. 157. 140. 140. 157. 255. 255. 0. 63.
      115. 29. 0. 0. 0. 0. 0. 255. 203. 0. 0. 0. 0. 0. 0. 0. 0. 89. 255.
      226. 255. 48. 0. 0. 0. 0. 0. 214. 255. 21. 255. 226. 0. 0. 0. 32.
      226. 255. 140. 0. 0. 255. 255. 255. 255. 255. 255. 8. 0. 255. 255.
      255. 255. 255. 255. 255. 255. 255. 255. 0. 0. 0. 0. 0. 0. 0. 0.
      255. 236. 0. 0. 0. 0. 0. 0. 0. 159. 255. 96. 0. 0. 0. 0. 0. 0.
      172. 255. 83. 0. 0. 0. 0. 0. 0. 127. 255. 127. 0. 0. 0. 0. 0. 0.
      0. 255. 185. 0. 0. 0. 0. 0. 0. 0. 210. 255. 0. 0. 0. 0. 0. 0. 0.
      223. 255. 32. 0. 0. 0. 0. 0. 0. 127. 255. 146. 0. 0. 0. 0. 0. 0.
      0. 255. 255. 0. 0. 0. 0. 0. 0. 0. 8. 194. 255. 255. 255. 255. 194.
      0. 0. 0. 255. 255. 32. 0. 0. 32. 255. 179. 0. 140. 255. 0. 0. 0.
      0. 0. 48. 255. 140. 91. 255. 131. 0. 0. 0. 0. 131. 255. 91. 0. 91.
      255. 255. 122. 122. 255. 226. 0. 0. 0. 215. 255. 115. 6. 6. 115.
      255. 215. 0. 255. 255. 0. 0. 0. 0. 0. 0. 255. 215. 255. 89. 0. 0.
      0. 0. 0. 0. 255. 255. 157. 255. 54. 0. 0. 0. 0. 54. 255. 157. 0.
      170. 255. 255. 255. 255. 255. 255. 166. 0. 0. 0. 255. 255. 255.
      255. 255. 73. 0. 0. 0. 255. 191. 0. 0. 0. 0. 245. 244. 0. 166.
      255. 0. 0. 0. 0. 0. 0. 255. 166. 224. 255. 0. 0. 0. 0. 0. 0. 255.
      255. 166. 255. 0. 0. 0. 0. 0. 191. 255. 255. 0. 109. 255. 192.
      140. 140. 255. 150. 122. 255. 0. 0. 0. 89. 89. 89. 49. 0. 255.
      197. 166. 255. 0. 0. 0. 0. 0. 143. 255. 41. 25. 255. 245. 0. 0. 0.
      98. 255. 242. 0. 0. 0. 255. 255. 255. 255. 255. 73. 0. 0. 0. 0. 0.
      0. 0. 18. 255. 255. 0. 0. 0. 0. 0. 0. 76. 255. 179. 255. 0. 0. 0.
      0. 0. 0. 255. 76. 13. 255. 0. 0. 0. 0. 0. 255. 179. 0. 25. 255.
      25. 0. 0. 0. 242. 255. 0. 0. 25. 255. 25. 0. 0. 255. 242. 0. 0. 0.
      25. 255. 0. 0. 201. 255. 38. 76. 76. 76. 8. 255. 76. 76. 128. 128.
      128. 128. 128. 128. 140. 255. 140. 128. 0. 0. 0. 0. 0. 0. 25. 255.
      0. 0. 0. 0. 0. 0. 0. 0. 25. 255. 25. 0. 0. 0. 0. 0. 0. 48. 255.
      255. 255. 255. 8. 130. 255. 255. 255. 179. 179. 217. 255. 255.
      255. 255. 191. 38. 0. 0. 38. 191. 255. 255. 0. 0. 0. 0. 0. 0. 76.
      255. 255. 255. 0. 0. 0. 0. 0. 0. 76. 255. 255. 255. 0. 0. 0. 0. 0.
      0. 76. 255. 255. 255. 0. 0. 0. 0. 0. 0. 76. 255. 255. 255. 0. 0.
      0. 0. 0. 0. 76. 255. 255. 255. 0. 0. 0. 0. 0. 0. 76. 255. 255.
      255. 0. 0. 0. 0. 0. 0. 76. 255. 255. 255. 0. 0. 0. 0. 0. 255. 255.
      255. 0. 0. 0. 0. 0. 0. 201. 245. 191. 191. 0. 0. 0. 0. 0. 112.
      255. 0. 191. 191. 0. 0. 0. 0. 67. 255. 41. 0. 191. 191. 0. 0. 0.
      29. 255. 105. 0. 0. 191. 191. 0. 0. 0. 255. 150. 0. 0. 0. 191.
      191. 0. 0. 191. 255. 0. 0. 166. 0. 191. 232. 0. 124. 207. 255.
      255. 255. 255. 255. 255. 255. 255. 207. 0. 0. 0. 0. 0. 0. 191.
      191. 0. 0. 0. 0. 0. 0. 0. 0. 191. 255. 0. 0. 0. 255. 255. 255.
      255. 255. 255. 255. 255. 140. 42. 255. 64. 0. 0. 0. 0. 0. 0. 0.
      140. 255. 64. 0. 0. 0. 0. 0. 0. 0. 140. 255. 0. 152. 179. 179.
      179. 0. 0. 0. 140. 255. 255. 255. 37. 37. 255. 255. 246. 0. 126.
      229. 0. 0. 0. 0. 0. 57. 255. 140. 0. 0. 0. 0. 0. 0. 0. 0. 255.
      255. 255. 255. 0. 0. 0. 0. 0. 0. 255. 198. 140. 255. 198. 0. 0. 0.
      27. 255. 255. 42. 0. 17. 198. 255. 255. 255. 255. 26. 0. 0. 255.
      255. 255. 255. 255. 255. 255. 255. 255. 255. 0. 0. 0. 0. 0. 0. 0.
      19. 255. 140. 0. 0. 0. 0. 0. 0. 19. 255. 210. 0. 0. 0. 0. 0. 0. 0.
      255. 255. 0. 0. 0. 0. 0. 0. 0. 231. 255. 0. 0. 0. 0. 0. 0. 0. 0.
      255. 195. 0. 0. 0. 0. 0. 0. 0. 255. 170. 0. 0. 0. 0. 0. 0. 0. 236.
      255. 0. 0. 0. 0. 0. 0. 0. 191. 255. 13. 0. 0. 0. 0. 0. 0. 166.
      255. 60. 0. 0. 0. 0. 0. 0. 0. 10. 255. 255. 255. 255. 255. 255. 0.
      0. 23. 255. 217. 0. 0. 0. 0. 255. 211. 0. 255. 255. 0. 0. 0. 0. 0.
      0. 255. 153. 255. 255. 0. 0. 0. 0. 0. 0. 255. 153. 209. 255. 0. 0.
      0. 0. 0. 0. 255. 255. 0. 227. 255. 140. 140. 140. 232. 255. 51.
      255. 0. 0. 89. 89. 89. 89. 89. 0. 183. 189. 115. 191. 0. 0. 0. 0.
      0. 0. 255. 153. 153. 255. 217. 0. 0. 0. 0. 255. 211. 0. 0. 10.
      255. 255. 255. 255. 255. 255. 0. 0. 0. 0. 0. 5. 206. 255. 255.
      255. 255. 255. 8. 168. 255. 255. 255. 173. 0. 255. 255. 51. 204.
      255. 191. 0. 0. 0. 0. 255. 255. 51. 0. 0. 0. 0. 0. 0. 0. 255. 255.
      51. 0. 0. 0. 0. 0. 0. 0. 255. 255. 51. 0. 0. 0. 0. 0. 0. 0. 255.
      255. 51. 0. 0. 0. 0. 0. 0. 0. 255. 255. 51. 0. 0. 0. 0. 0. 0. 0.
      255. 255. 51. 0. 0. 0. 0. 0. 0. 130. 255. 255. 224. 0. 0. 0. 0. 0.
      0. 153. 255. 255. 255. 0. 24. 255. 255. 255. 255. 255. 83. 0. 0.
      50. 255. 134. 0. 0. 0. 80. 255. 242. 0. 255. 255. 0. 0. 0. 0. 0.
      191. 255. 0. 0. 0. 0. 0. 0. 0. 0. 236. 246. 0. 0. 0. 0. 0. 0. 0.
      115. 255. 0. 0. 0. 0. 0. 0. 22. 255. 255. 0. 0. 0. 0. 0. 0. 42.
      255. 152. 0. 0. 0. 0. 0. 0. 159. 255. 38. 0. 0. 0. 0. 0. 0. 251.
      210. 0. 0. 0. 0. 0. 0. 0. 255. 255. 255. 255. 255. 255. 255. 255.
      255. 255. 0. 24. 255. 255. 255. 255. 255. 255. 0. 0. 0. 255. 236.
      0. 0. 0. 0. 236. 246. 0. 0. 255. 0. 0. 0. 0. 0. 0. 255. 0. 0. 255.
      134. 0. 0. 0. 0. 236. 246. 0. 0. 0. 255. 255. 255. 255. 255. 255.
      0. 0. 17. 255. 248. 0. 0. 0. 0. 248. 255. 0. 255. 255. 0. 0. 0. 0.
      0. 0. 255. 192. 255. 255. 0. 0. 0. 0. 0. 0. 255. 210. 50. 255.
      236. 0. 0. 0. 80. 236. 255. 0. 0. 24. 83. 255. 255. 255. 255. 83.
      0. 0. 0. 0. 0. 0. 0. 206. 255. 255. 0. 0. 0. 0. 0. 0. 81. 255.
      102. 255. 0. 0. 0. 0. 0. 38. 255. 0. 102. 255. 0. 0. 0. 0. 0. 255.
      133. 0. 102. 255. 0. 0. 0. 0. 255. 186. 0. 0. 102. 255. 0. 0. 0.
      186. 255. 0. 0. 0. 102. 255. 0. 0. 133. 255. 0. 0. 166. 0. 102.
      255. 0. 133. 217. 255. 255. 255. 255. 255. 255. 255. 255. 217. 0.
      0. 0. 0. 0. 0. 102. 255. 0. 0. 0. 0. 0. 0. 0. 0. 102. 255. 0. 0.
      255. 255. 255. 255. 255. 255. 255. 255. 255. 255. 0. 0. 0. 0. 0.
      0. 0. 0. 255. 107. 0. 0. 0. 0. 0. 0. 0. 255. 229. 0. 0. 0. 0. 0.
      0. 0. 240. 255. 0. 0. 0. 0. 0. 0. 0. 138. 255. 0. 0. 0. 0. 0. 0.
      0. 102. 255. 51. 0. 0. 0. 0. 0. 0. 15. 255. 255. 0. 0. 0. 0. 0. 0.
      0. 255. 255. 0. 0. 0. 0. 0. 0. 0. 179. 255. 46. 0. 0. 0. 0. 0. 0.
      184. 255. 204. 0. 0. 0. 0. 0. 0. 0. 0. 0. 0. 9. 175. 255. 255.
      255. 255. 11. 76. 210. 255. 255. 205. 179. 198. 255. 255. 255.
      255. 255. 121. 0. 0. 0. 159. 255. 255. 0. 0. 0. 0. 0. 0. 0. 255.
      255. 255. 0. 0. 0. 0. 0. 0. 0. 255. 255. 255. 0. 0. 0. 0. 0. 0. 0.
      255. 255. 255. 0. 0. 0. 0. 0. 0. 0. 255. 255. 255. 0. 0. 0. 0. 0.
      0. 0. 255. 255. 255. 0. 0. 0. 0. 0. 0. 0. 255. 255. 255. 0. 0. 0.
      0. 0. 0. 0. 255. 255. 255. 0. 0. 140. 255. 255. 255. 255. 13. 0.
      0. 38. 255. 217. 89. 0. 0. 179. 255. 255. 38. 255. 255. 0. 0. 0.
      0. 0. 64. 255. 128. 38. 38. 0. 0. 0. 0. 0. 89. 255. 127. 0. 0. 0.
      0. 0. 0. 0. 255. 255. 13. 0. 0. 0. 0. 0. 140. 255. 127. 0. 0. 0.
      0. 0. 38. 255. 255. 89. 0. 0. 0. 0. 0. 128. 255. 191. 0. 0. 0. 0.
      0. 0. 217. 255. 0. 0. 0. 0. 0. 0. 0. 255. 255. 255. 255. 255. 255.
      255. 255. 255. 255. 0. 0. 26. 255. 255. 255. 255. 19. 0. 0. 42.
      255. 255. 179. 0. 0. 179. 255. 192. 42. 198. 255. 0. 0. 0. 0. 0.
      32. 255. 140. 255. 89. 0. 0. 0. 0. 0. 0. 139. 255. 152. 255. 0. 0.
      0. 0. 0. 57. 255. 255. 0. 255. 255. 60. 26. 26. 255. 248. 89. 255.
      0. 0. 0. 152. 179. 179. 0. 0. 89. 255. 140. 172. 0. 0. 0. 0. 0.
      32. 255. 140. 42. 255. 255. 27. 0. 0. 27. 255. 255. 42. 0. 0. 26.
      255. 255. 255. 255. 19. 0. 0. 0. 0. 0. 0. 0. 83. 255. 255. 0. 0.
      0. 0. 0. 0. 191. 255. 179. 255. 0. 0. 0. 0. 0. 32. 255. 0. 0. 255.
      0. 0. 0. 0. 134. 255. 64. 0. 191. 255. 0. 0. 0. 0. 255. 198. 0. 0.
      191. 255. 0. 0. 0. 255. 64. 0. 0. 0. 172. 248. 0. 0. 255. 255. 76.
      76. 76. 76. 76. 210. 76. 57. 128. 128. 128. 128. 128. 128. 223.
      255. 128. 128. 0. 0. 0. 0. 0. 0. 134. 236. 0. 0. 0. 0. 0. 0. 0. 0.
      191. 255. 0. 0. 255. 255. 255. 255. 255. 255. 255. 255. 255. 255.
      0. 0. 0. 0. 0. 0. 0. 0. 255. 224. 0. 0. 0. 0. 0. 0. 0. 255. 229.
      0. 0. 0. 0. 0. 0. 0. 204. 255. 0. 0. 0. 0. 0. 0. 0. 138. 255. 26.
      0. 0. 0. 0. 0. 0. 102. 255. 234. 0. 0. 0. 0. 0. 0. 0. 255. 209. 0.
      0. 0. 0. 0. 0. 0. 255. 255. 0. 0. 0. 0. 0. 0. 0. 179. 255. 153. 0.
      0. 0. 0. 0. 0. 0. 255. 204. 0. 0. 0. 0. 0. 0. 0. 0. 26. 255. 255.
      255. 255. 26. 0. 0. 0. 61. 255. 179. 107. 0. 143. 255. 255. 46.
      153. 255. 0. 0. 0. 0. 0. 0. 255. 255. 255. 255. 0. 0. 71. 179. 36.
      0. 0. 0. 255. 51. 229. 255. 255. 255. 255. 255. 184. 0. 255. 255.
      0. 0. 0. 0. 0. 0. 255. 255. 255. 255. 0. 0. 0. 0. 0. 0. 194. 255.
      153. 255. 0. 0. 0. 0. 0. 0. 255. 255. 0. 219. 255. 0. 0. 0. 0.
      179. 255. 46. 0. 0. 26. 255. 255. 255. 255. 255. 0. 0. 0. 0. 191.
      255. 255. 255. 255. 255. 0. 0. 0. 166. 255. 38. 0. 0. 0. 255. 255.
      140. 140. 255. 64. 0. 0. 0. 0. 0. 89. 140. 255. 255. 0. 0. 242.
      255. 0. 0. 0. 0. 255. 89. 191. 255. 255. 0. 255. 255. 255. 0. 255.
      255. 64. 0. 0. 0. 0. 0. 255. 255. 255. 255. 0. 0. 0. 0. 0. 0. 89.
      255. 140. 255. 64. 0. 0. 0. 0. 0. 89. 255. 0. 255. 255. 0. 0. 0.
      0. 64. 255. 140. 0. 0. 191. 255. 255. 255. 255. 255. 166. 0. 0. 8.
      255. 255. 255. 255. 255. 194. 0. 0. 21. 255. 226. 0. 0. 0. 32.
      255. 255. 0. 226. 255. 0. 0. 0. 0. 0. 64. 255. 140. 0. 0. 0. 0. 0.
      0. 0. 131. 255. 0. 0. 0. 0. 0. 0. 0. 136. 255. 91. 0. 0. 0. 0. 0.
      0. 255. 255. 86. 0. 0. 0. 0. 0. 0. 250. 247. 0. 0. 0. 0. 0. 0.
      143. 255. 73. 0. 0. 0. 0. 0. 0. 242. 255. 38. 0. 0. 0. 0. 0. 0.
      140. 255. 255. 255. 255. 255. 255. 255. 255. 255. 0. 0. 0. 0. 0.
      60. 255. 255. 0. 0. 0. 0. 0. 0. 65. 255. 213. 255. 0. 0. 0. 0. 0.
      70. 255. 0. 115. 255. 0. 0. 0. 0. 64. 255. 103. 0. 115. 255. 0. 0.
      0. 0. 255. 115. 0. 0. 115. 255. 0. 0. 0. 255. 172. 0. 0. 0. 115.
      255. 0. 0. 192. 255. 19. 76. 76. 0. 157. 255. 4. 76. 128. 128.
      128. 128. 128. 128. 185. 255. 128. 128. 0. 0. 0. 0. 0. 0. 115.
      255. 0. 0. 0. 0. 0. 0. 0. 0. 129. 255. 0. 0. 0. 0. 255. 255. 255.
      255. 255. 255. 0. 0. 0. 204. 255. 0. 0. 0. 0. 255. 255. 153. 153.
      255. 0. 0. 0. 0. 0. 0. 51. 153. 255. 255. 0. 0. 255. 255. 51. 0.
      0. 0. 255. 51. 255. 255. 153. 0. 255. 255. 204. 0. 255. 255. 0. 0.
      0. 0. 0. 0. 255. 153. 255. 255. 0. 0. 0. 0. 0. 0. 255. 255. 153.
      255. 0. 0. 0. 0. 0. 0. 255. 255. 0. 204. 255. 0. 0. 0. 0. 255.
      255. 153. 0. 0. 255. 255. 255. 255. 255. 255. 0. 0. 0. 0. 255.
      255. 255. 255. 255. 255. 0. 0. 153. 255. 255. 0. 0. 0. 0. 255.
      204. 0. 255. 255. 0. 0. 0. 0. 0. 0. 255. 153. 255. 51. 0. 0. 0. 0.
      0. 0. 255. 255. 153. 255. 0. 0. 0. 0. 0. 0. 255. 255. 0. 255. 255.
      255. 0. 153. 255. 255. 255. 255. 0. 0. 0. 255. 255. 255. 51. 0.
      255. 255. 153. 255. 0. 0. 0. 0. 0. 0. 255. 153. 153. 255. 255. 0.
      0. 0. 0. 255. 204. 0. 0. 0. 255. 255. 255. 255. 255. 255. 0. 0. 0.
      0. 255. 255. 255. 255. 255. 255. 0. 0. 153. 255. 255. 0. 0. 0. 0.
      255. 204. 0. 255. 255. 0. 0. 0. 0. 0. 255. 255. 0. 0. 0. 0. 0. 0.
      0. 0. 255. 255. 0. 0. 0. 0. 255. 255. 255. 255. 0. 0. 0. 0. 0. 0.
      255. 153. 0. 0. 255. 255. 0. 0. 0. 0. 0. 0. 0. 0. 0. 255. 153.
      255. 255. 0. 0. 0. 0. 0. 0. 255. 255. 153. 255. 0. 0. 0. 0. 0.
      255. 255. 153. 0. 0. 255. 255. 255. 255. 255. 255. 0. 0. 0. 0. 0.
      0. 9. 26. 244. 255. 255. 38. 11. 157. 255. 255. 228. 179. 179.
      255. 255. 38. 255. 255. 159. 0. 0. 0. 121. 255. 255. 38. 0. 0. 0.
      0. 0. 0. 242. 255. 255. 38. 0. 0. 0. 0. 0. 0. 242. 255. 255. 38.
      0. 0. 0. 0. 0. 0. 242. 255. 255. 38. 0. 0. 0. 0. 0. 0. 242. 255.
      255. 38. 0. 0. 0. 0. 0. 0. 242. 255. 255. 38. 0. 0. 0. 0. 0. 0.
      242. 255. 255. 38. 0. 0. 0. 0. 0. 0. 242. 255. 255. 60. 0. 20.
      255. 255. 255. 255. 255. 255. 20. 0. 0. 255. 255. 0. 0. 0. 0. 255.
      255. 0. 0. 255. 0. 0. 0. 0. 0. 0. 255. 0. 0. 255. 179. 0. 0. 0. 0.
      255. 255. 0. 0. 0. 255. 255. 255. 255. 255. 255. 0. 0. 15. 255.
      229. 0. 0. 0. 0. 255. 255. 15. 255. 255. 0. 0. 0. 0. 0. 0. 255.
      183. 255. 255. 0. 0. 0. 0. 0. 0. 255. 204. 46. 255. 255. 0. 0. 0.
      0. 255. 255. 46. 0. 0. 26. 255. 255. 255. 255. 26. 0. 0. 0. 175.
      255. 255. 255. 255. 255. 198. 0. 0. 42. 255. 198. 0. 0. 0. 27.
      255. 255. 0. 255. 255. 0. 0. 0. 0. 0. 64. 255. 140. 0. 0. 0. 0. 0.
      0. 0. 64. 255. 42. 0. 0. 0. 0. 0. 0. 34. 255. 166. 0. 0. 0. 0. 0.
      0. 255. 255. 172. 0. 0. 0. 0. 0. 65. 255. 170. 0. 0. 0. 0. 0. 0.
      96. 255. 134. 0. 0. 0. 0. 0. 0. 255. 255. 0. 0. 0. 0. 0. 0. 0.
      140. 255. 255. 255. 255. 255. 255. 255. 255. 255. 0. 0. 0. 0. 9.
      26. 244. 255. 255. 255. 11. 76. 210. 255. 255. 205. 179. 198. 255.
      255. 255. 255. 255. 121. 0. 0. 0. 159. 255. 255. 0. 0. 0. 0. 0. 0.
      0. 255. 255. 255. 0. 0. 0. 0. 0. 0. 0. 255. 255. 255. 0. 0. 0. 0.
      0. 0. 0. 255. 255. 255. 0. 0. 0. 0. 0. 0. 0. 255. 255. 255. 0. 0.
      0. 0. 0. 0. 0. 255. 255. 255. 0. 0. 0. 0. 0. 0. 0. 255. 255. 255.
      0. 0. 0. 0. 0. 0. 0. 255. 255. 255. 0. 26. 255. 255. 255. 255.
      255. 255. 0. 0. 183. 255. 179. 0. 0. 0. 143. 255. 219. 0. 255. 51.
      0. 0. 0. 0. 0. 0. 255. 153. 255. 51. 0. 0. 0. 0. 0. 0. 255. 224.
      255. 255. 0. 0. 0. 0. 0. 229. 255. 255. 0. 250. 255. 255. 255.
      255. 255. 229. 51. 255. 0. 0. 0. 0. 0. 0. 0. 0. 255. 153. 204.
      153. 0. 0. 0. 0. 0. 128. 255. 0. 153. 255. 255. 0. 0. 0. 240. 255.
      204. 0. 0. 0. 26. 255. 255. 255. 71. 0. 0. 0. 0. 0. 0. 5. 206.
      255. 255. 255. 255. 255. 8. 168. 255. 255. 255. 173. 0. 0. 255.
      255. 51. 255. 191. 0. 0. 0. 0. 255. 255. 255. 0. 0. 0. 0. 0. 0. 0.
      255. 255. 255. 0. 0. 0. 0. 0. 0. 0. 255. 255. 255. 0. 0. 0. 0. 0.
      0. 0. 255. 255. 255. 0. 0. 0. 0. 0. 0. 0. 255. 255. 255. 0. 0. 0.
      0. 0. 0. 0. 255. 255. 255. 0. 0. 0. 0. 0. 0. 0. 255. 255. 255. 0.
      0. 0. 0. 0. 0. 0. 255. 255. 255. 0. 20. 255. 255. 255. 255. 255.
      255. 0. 0. 153. 255. 179. 0. 0. 0. 143. 255. 219. 0. 255. 255. 0.
      0. 0. 0. 0. 0. 255. 0. 0. 0. 0. 0. 0. 0. 0. 255. 219. 0. 0. 0. 0.
      0. 0. 0. 250. 255. 20. 0. 0. 0. 0. 0. 10. 255. 255. 0. 0. 0. 0. 0.
      0. 112. 255. 102. 0. 0. 0. 0. 0. 0. 255. 229. 77. 0. 0. 0. 0. 0.
      107. 255. 255. 0. 0. 0. 0. 0. 0. 0. 163. 255. 255. 255. 255. 255.
      255. 255. 255. 255. 0. 24. 255. 255. 255. 255. 255. 255. 0. 0. 50.
      255. 134. 0. 0. 0. 0. 236. 246. 0. 166. 255. 0. 0. 0. 0. 0. 191.
      255. 0. 50. 255. 134. 0. 0. 0. 0. 236. 242. 0. 0. 0. 255. 255.
      255. 255. 255. 83. 0. 0. 175. 255. 172. 0. 0. 0. 0. 248. 255. 0.
      255. 182. 0. 0. 0. 0. 0. 0. 255. 192. 255. 134. 0. 0. 0. 0. 0. 0.
      255. 166. 166. 255. 179. 0. 0. 0. 80. 236. 255. 0. 0. 0. 83. 255.
      255. 255. 255. 26. 0. 0. 0. 255. 255. 255. 255. 255. 255. 255.
      255. 153. 46. 255. 0. 0. 0. 0. 0. 0. 0. 0. 153. 255. 0. 0. 0. 0.
      0. 0. 0. 0. 153. 255. 0. 179. 179. 179. 179. 0. 0. 0. 153. 255.
      255. 255. 26. 26. 255. 255. 229. 0. 229. 229. 0. 0. 0. 0. 0. 0.
      255. 255. 0. 0. 0. 0. 0. 0. 0. 0. 51. 255. 255. 255. 0. 0. 0. 0.
      0. 0. 255. 255. 153. 255. 179. 0. 0. 0. 0. 255. 255. 46. 0. 20.
      255. 255. 255. 255. 255. 255. 20. 0. 0. 6. 255. 255. 255. 255.
      255. 255. 6. 0. 127. 255. 236. 0. 0. 0. 0. 236. 255. 127. 223.
      255. 0. 0. 0. 0. 0. 0. 255. 127. 0. 0. 0. 0. 0. 0. 0. 172. 255.
      83. 0. 0. 57. 255. 255. 255. 255. 255. 0. 0. 0. 0. 0. 115. 115. 0.
      115. 255. 255. 127. 0. 0. 0. 0. 0. 0. 0. 0. 172. 255. 223. 223. 0.
      0. 0. 0. 0. 0. 127. 255. 146. 255. 236. 0. 0. 0. 0. 236. 255. 146.
      0. 6. 134. 255. 255. 255. 255. 134. 6. 0. 0. 6. 255. 255. 255.
      255. 255. 134. 6. 0. 127. 255. 236. 0. 0. 0. 0. 236. 255. 127.
      255. 255. 0. 0. 0. 0. 0. 0. 255. 127. 0. 0. 0. 0. 0. 0. 0. 127.
      255. 127. 0. 0. 0. 0. 0. 0. 57. 255. 197. 0. 0. 0. 0. 0. 0. 197.
      255. 127. 0. 0. 0. 0. 0. 83. 255. 255. 45. 0. 0. 0. 0. 0. 96. 255.
      255. 0. 0. 0. 0. 0. 0. 236. 255. 0. 0. 0. 0. 0. 0. 0. 255. 255.
      255. 255. 255. 255. 255. 255. 255. 255. 0. 0. 194. 255. 255. 255.
      255. 255. 8. 0. 0. 255. 255. 0. 0. 0. 0. 226. 255. 140. 0. 255.
      64. 0. 0. 0. 0. 0. 255. 140. 0. 255. 255. 0. 0. 0. 0. 64. 255.
      140. 0. 0. 226. 255. 255. 255. 255. 255. 0. 0. 0. 255. 255. 115.
      0. 0. 17. 150. 255. 140. 140. 255. 0. 0. 0. 0. 0. 0. 147. 255.
      169. 255. 0. 0. 0. 0. 0. 0. 89. 255. 21. 255. 226. 0. 0. 0. 0. 64.
      255. 157. 0. 8. 194. 255. 255. 255. 255. 194. 13. 0. 0. 255. 255.
      255. 255. 255. 255. 255. 255. 140. 0. 255. 64. 0. 0. 0. 0. 0. 0.
      0. 0. 255. 64. 0. 0. 0. 0. 0. 0. 0. 140. 255. 64. 0. 89. 89. 89.
      0. 0. 0. 140. 255. 255. 255. 146. 140. 255. 255. 206. 0. 140. 255.
      29. 0. 0. 0. 0. 29. 255. 203. 0. 0. 0. 0. 0. 0. 0. 0. 89. 255.
      226. 255. 0. 0. 0. 0. 0. 0. 89. 255. 140. 255. 226. 0. 0. 0. 0.
      226. 255. 140. 0. 8. 255. 255. 255. 255. 255. 255. 13. 0. 0. 0.
      26. 255. 255. 255. 255. 26. 0. 0. 46. 255. 255. 0. 0. 0. 0. 255.
      219. 0. 204. 255. 0. 0. 0. 0. 0. 128. 255. 153. 0. 0. 0. 0. 0. 0.
      0. 179. 255. 46. 0. 0. 0. 0. 0. 0. 0. 255. 209. 0. 0. 0. 0. 0. 10.
      163. 255. 0. 0. 0. 0. 0. 0. 15. 255. 255. 36. 0. 0. 0. 0. 0. 128.
      255. 204. 0. 0. 0. 0. 0. 0. 143. 255. 0. 0. 0. 0. 0. 0. 0. 153.
      255. 255. 255. 255. 255. 255. 255. 255. 255. 0. 0. 198. 255. 255.
      255. 255. 19. 0. 0. 42. 255. 198. 0. 0. 0. 27. 255. 255. 42. 255.
      255. 32. 0. 0. 0. 0. 64. 255. 140. 0. 0. 0. 0. 0. 0. 0. 64. 255.
      140. 0. 0. 0. 251. 231. 229. 229. 198. 17. 0. 0. 0. 0. 195. 11. 0.
      229. 236. 255. 152. 0. 0. 0. 0. 0. 0. 0. 0. 89. 255. 255. 255. 0.
      0. 0. 0. 0. 0. 89. 255. 174. 255. 198. 0. 0. 0. 0. 198. 255. 174.
      0. 0. 198. 255. 255. 255. 255. 198. 0. 0. 255. 255. 255. 255. 255.
      255. 255. 255. 255. 255. 0. 0. 0. 0. 0. 0. 0. 0. 255. 140. 0. 0.
      0. 0. 0. 0. 0. 159. 255. 0. 0. 0. 0. 0. 0. 0. 255. 255. 50. 0. 0.
      0. 0. 0. 0. 13. 255. 19. 0. 0. 0. 0. 0. 0. 24. 255. 195. 0. 0. 0.
      0. 0. 0. 0. 255. 251. 0. 0. 0. 0. 0. 0. 0. 236. 255. 0. 0. 0. 0.
      0. 0. 0. 191. 255. 13. 0. 0. 0. 0. 0. 0. 166. 255. 60. 0. 0. 0. 0.
      0. 0. 0. 0. 26. 255. 255. 255. 255. 26. 0. 0. 0. 255. 179. 0. 0.
      0. 0. 255. 255. 0. 153. 255. 0. 0. 0. 0. 0. 0. 255. 153. 46. 255.
      0. 0. 0. 0. 0. 0. 255. 46. 0. 20. 255. 229. 229. 229. 229. 255.
      20. 0. 15. 255. 229. 184. 0. 0. 184. 255. 255. 15. 255. 255. 0. 0.
      0. 0. 0. 0. 255. 255. 255. 255. 0. 0. 0. 0. 0. 0. 255. 255. 153.
      255. 179. 0. 0. 0. 0. 179. 255. 153. 0. 0. 255. 255. 255. 255.
      255. 255. 0. 0. 0. 0. 0. 255. 255. 255. 255. 255. 0. 0. 0. 219.
      255. 143. 0. 0. 0. 179. 255. 46. 0. 255. 128. 0. 0. 0. 0. 0. 255.
      255. 153. 255. 0. 0. 179. 179. 179. 0. 0. 0. 153. 255. 229. 255.
      255. 26. 209. 255. 250. 0. 153. 255. 229. 0. 0. 0. 0. 0. 234. 255.
      153. 255. 0. 0. 0. 0. 0. 0. 51. 255. 77. 255. 0. 0. 0. 0. 0. 0.
      153. 255. 0. 219. 255. 143. 0. 0. 0. 179. 255. 46. 0. 0. 0. 255.
      255. 255. 255. 255. 0. 0. 0. 0. 26. 255. 255. 255. 255. 0. 0. 0.
      153. 255. 179. 0. 0. 0. 143. 255. 204. 0. 255. 255. 0. 0. 0. 0. 0.
      0. 255. 0. 255. 51. 0. 0. 0. 0. 0. 0. 255. 153. 255. 255. 0. 0. 0.
      0. 0. 0. 255. 153. 138. 250. 255. 209. 26. 163. 255. 229. 51. 245.
      0. 0. 0. 179. 179. 179. 0. 0. 255. 153. 204. 255. 0. 0. 0. 0. 0.
      128. 255. 0. 183. 255. 179. 0. 0. 0. 179. 255. 204. 0. 0. 0. 255.
      255. 255. 255. 255. 0. 0. 0. 0. 0. 198. 255. 255. 255. 255. 19. 0.
      0. 140. 255. 198. 0. 0. 0. 179. 255. 255. 0. 198. 255. 0. 0. 0. 0.
      0. 32. 255. 140. 255. 89. 0. 0. 0. 0. 0. 0. 89. 255. 152. 255. 57.
      0. 0. 0. 0. 57. 255. 255. 0. 246. 255. 255. 26. 37. 255. 229. 89.
      255. 0. 0. 0. 152. 179. 179. 0. 0. 89. 255. 198. 255. 0. 0. 0. 0.
      0. 32. 255. 140. 140. 255. 198. 0. 0. 0. 179. 255. 255. 0. 0. 0.
      198. 255. 255. 255. 221. 19. 0. 0. 0. 0. 0. 0. 0. 186. 255. 255.
      0. 0. 0. 0. 0. 0. 130. 201. 186. 255. 0. 0. 0. 0. 0. 115. 255. 0.
      26. 255. 0. 0. 0. 0. 89. 255. 54. 0. 255. 255. 0. 0. 0. 25. 255.
      25. 0. 0. 255. 255. 0. 0. 0. 255. 115. 0. 0. 0. 255. 255. 0. 0.
      255. 237. 76. 76. 76. 76. 255. 255. 76. 54. 128. 128. 128. 128.
      128. 128. 255. 255. 128. 89. 0. 0. 0. 0. 0. 0. 255. 255. 0. 0. 0.
      0. 0. 0. 0. 0. 255. 255. 0. 0. 0. 255. 255. 255. 255. 255. 255.
      255. 255. 140. 0. 255. 64. 0. 0. 0. 0. 0. 0. 0. 140. 255. 64. 0.
      0. 0. 0. 0. 0. 0. 140. 255. 0. 76. 247. 255. 89. 0. 0. 0. 140.
      255. 255. 140. 140. 140. 157. 255. 255. 0. 140. 255. 29. 0. 0. 0.
      0. 64. 255. 140. 0. 0. 0. 0. 0. 0. 0. 0. 255. 255. 226. 255. 0. 0.
      0. 0. 0. 0. 255. 140. 140. 255. 226. 0. 0. 0. 0. 255. 255. 21. 0.
      8. 194. 255. 255. 255. 255. 194. 8. 0. 0. 0. 0. 0. 9. 175. 255.
      255. 255. 255. 11. 157. 255. 255. 228. 179. 9. 198. 255. 255. 255.
      255. 255. 121. 0. 0. 0. 255. 255. 255. 0. 0. 0. 0. 0. 0. 0. 255.
      255. 255. 0. 0. 0. 0. 0. 0. 0. 255. 255. 255. 0. 0. 0. 0. 0. 0. 0.
      255. 255. 255. 0. 0. 0. 0. 0. 0. 0. 255. 255. 255. 0. 0. 0. 0. 0.
      0. 0. 255. 255. 255. 0. 0. 0. 0. 0. 0. 0. 255. 255. 255. 0. 0. 0.
      0. 0. 0. 0. 255. 255. 255. 0. 0. 0. 255. 255. 255. 255. 255. 0. 0.
      0. 204. 255. 143. 0. 0. 0. 179. 255. 46. 0. 255. 128. 0. 0. 0. 0.
      0. 255. 204. 153. 255. 0. 0. 179. 179. 179. 0. 0. 0. 153. 51. 229.
      255. 26. 26. 209. 255. 250. 0. 153. 255. 229. 0. 0. 0. 0. 0. 255.
      153. 153. 255. 0. 0. 0. 0. 0. 0. 255. 255. 0. 255. 0. 0. 0. 0. 0.
      0. 255. 153. 0. 204. 255. 143. 0. 0. 0. 179. 255. 46. 0. 0. 0.
      255. 255. 255. 255. 255. 0. 0. 0. 0. 26. 255. 255. 255. 255. 198.
      0. 0. 0. 192. 255. 27. 0. 0. 27. 198. 255. 42. 140. 255. 64. 0. 0.
      0. 0. 0. 255. 140. 0. 0. 0. 0. 0. 0. 0. 45. 255. 140. 0. 0. 0.
      195. 231. 231. 255. 255. 17. 0. 0. 0. 0. 0. 11. 0. 229. 236. 255.
      152. 0. 0. 0. 0. 0. 0. 0. 0. 89. 255. 255. 255. 0. 0. 0. 0. 0. 0.
      89. 255. 42. 255. 255. 27. 0. 0. 0. 45. 255. 174. 0. 0. 26. 255.
      255. 255. 255. 198. 17. 0. 0. 8. 255. 255. 255. 255. 255. 255. 8.
      0. 21. 255. 226. 0. 0. 0. 0. 226. 255. 140. 140. 255. 0. 0. 0. 0.
      0. 0. 255. 255. 91. 255. 131. 0. 0. 0. 0. 64. 255. 215. 0. 0. 226.
      255. 255. 255. 255. 226. 0. 0. 77. 255. 255. 115. 0. 0. 17. 150.
      255. 203. 255. 255. 0. 0. 0. 0. 0. 0. 147. 255. 255. 214. 0. 0. 0.
      0. 0. 0. 89. 255. 157. 255. 217. 0. 0. 0. 0. 54. 255. 255. 0. 8.
      255. 255. 255. 255. 255. 255. 170. 0. 0. 0. 255. 255. 255. 255.
      255. 255. 10. 0. 23. 255. 255. 0. 0. 0. 0. 255. 255. 0. 153. 255.
      0. 0. 0. 0. 0. 0. 204. 115. 255. 51. 0. 89. 89. 89. 89. 0. 0. 0.
      255. 23. 255. 232. 140. 140. 232. 255. 204. 0. 255. 255. 0. 0. 0.
      0. 0. 0. 255. 153. 255. 51. 0. 0. 0. 0. 0. 0. 255. 255. 179. 255.
      0. 0. 0. 0. 0. 0. 255. 153. 23. 255. 255. 0. 0. 0. 0. 255. 255. 0.
      0. 0. 255. 255. 255. 255. 255. 255. 10. 0. 0. 0. 255. 255. 255.
      255. 255. 255. 0. 0. 23. 255. 255. 0. 0. 0. 0. 255. 211. 0. 255.
      255. 0. 0. 0. 0. 0. 0. 255. 153. 0. 0. 0. 0. 0. 0. 0. 0. 255. 99.
      0. 0. 0. 0. 0. 0. 0. 255. 204. 0. 0. 0. 0. 0. 0. 209. 255. 115. 0.
      0. 0. 0. 0. 33. 201. 255. 18. 0. 0. 0. 0. 0. 0. 255. 255. 0. 0. 0.
      0. 0. 0. 173. 255. 31. 0. 0. 0. 0. 0. 0. 153. 255. 255. 255. 255.
      255. 255. 255. 255. 255. 255. 255. 255. 255. 255. 255. 255. 255.
      255. 255. 0. 0. 0. 0. 0. 0. 0. 0. 139. 255. 0. 0. 0. 0. 0. 0. 0.
      159. 255. 70. 0. 0. 0. 0. 0. 0. 27. 255. 166. 0. 0. 0. 0. 0. 0.
      11. 255. 191. 0. 0. 0. 0. 0. 0. 0. 255. 251. 0. 0. 0. 0. 0. 0. 0.
      242. 251. 0. 0. 0. 0. 0. 0. 0. 108. 255. 0. 0. 0. 0. 0. 0. 0. 134.
      255. 255. 0. 0. 0. 0. 0. 0. 0. 255. 255. 1. 0. 0. 0. 0. 0. 0. 76.
      255. 255. 255. 255. 255. 166. 0. 0. 161. 255. 26. 0. 0. 0. 3. 255.
      255. 0. 255. 229. 0. 0. 0. 0. 0. 0. 255. 179. 0. 0. 0. 0. 0. 0. 0.
      127. 255. 0. 0. 0. 0. 0. 0. 0. 25. 255. 94. 0. 0. 0. 0. 0. 0. 201.
      255. 89. 0. 0. 0. 0. 0. 0. 255. 255. 0. 0. 0. 0. 0. 0. 191. 255.
      89. 0. 0. 0. 0. 0. 0. 255. 242. 0. 0. 0. 0. 0. 0. 0. 255. 255.
      255. 255. 255. 255. 255. 255. 255. 255. 0. 0. 76. 255. 255. 255.
      255. 255. 19. 0. 0. 255. 255. 19. 0. 0. 0. 83. 255. 172. 191. 255.
      0. 0. 0. 0. 0. 0. 96. 128. 255. 191. 0. 26. 198. 255. 83. 19. 0.
      0. 255. 0. 236. 210. 76. 76. 76. 255. 255. 0. 255. 255. 0. 0. 0.
      0. 0. 0. 236. 210. 255. 191. 0. 0. 0. 0. 0. 0. 191. 255. 191. 255.
      0. 0. 0. 0. 0. 0. 191. 255. 0. 255. 255. 19. 0. 0. 0. 83. 255. 0.
      0. 0. 76. 255. 255. 255. 255. 210. 19. 0. 0. 19. 210. 255. 255.
      255. 255. 210. 19. 0. 0. 255. 83. 0. 0. 0. 0. 83. 255. 0. 191.
      255. 0. 0. 0. 0. 0. 0. 255. 191. 0. 255. 83. 0. 0. 0. 0. 83. 255.
      0. 0. 0. 210. 255. 255. 255. 255. 210. 0. 0. 57. 255. 198. 0. 0.
      0. 0. 198. 255. 0. 255. 191. 0. 0. 0. 0. 0. 0. 198. 255. 255. 191.
      0. 0. 0. 0. 0. 0. 191. 255. 172. 255. 83. 0. 0. 0. 0. 83. 255.
      172. 0. 19. 255. 255. 255. 255. 255. 210. 19. 0. 0. 0. 0. 0. 0.
      80. 255. 255. 0. 0. 0. 0. 0. 0. 37. 255. 0. 255. 0. 0. 0. 0. 0.
      57. 255. 25. 0. 255. 0. 0. 0. 0. 0. 255. 126. 0. 0. 255. 0. 0. 0.
      0. 255. 152. 0. 0. 0. 255. 0. 0. 0. 244. 146. 0. 0. 0. 0. 255. 0.
      0. 243. 255. 0. 0. 0. 0. 0. 255. 0. 0. 191. 191. 191. 191. 191.
      191. 191. 255. 191. 191. 0. 0. 0. 0. 0. 0. 0. 255. 0. 0. 0. 0. 0.
      0. 0. 0. 179. 255. 0. 0. 255. 255. 255. 255. 255. 255. 255. 255.
      255. 255. 0. 0. 0. 0. 0. 0. 0. 0. 194. 191. 0. 0. 0. 0. 0. 0. 0.
      207. 255. 0. 0. 0. 0. 0. 0. 0. 191. 255. 35. 0. 0. 0. 0. 0. 0. 64.
      255. 163. 0. 0. 0. 0. 0. 0. 0. 255. 92. 0. 0. 0. 0. 0. 0. 0. 226.
      220. 0. 0. 0. 0. 0. 0. 0. 112. 255. 0. 0. 0. 0. 0. 0. 0. 0. 255.
      64. 0. 0. 0. 0. 0. 0. 41. 255. 191. 0. 0. 0. 0. 0. 0. 0. 0. 255.
      255. 255. 255. 255. 255. 0. 0. 0. 255. 255. 0. 0. 0. 0. 255. 255.
      0. 166. 255. 0. 0. 0. 0. 0. 0. 255. 0. 0. 0. 0. 0. 0. 0. 0. 191.
      255. 0. 0. 0. 0. 255. 255. 255. 255. 64. 0. 0. 0. 0. 0. 140. 255.
      0. 0. 255. 255. 0. 0. 0. 0. 0. 0. 0. 0. 0. 255. 166. 255. 255. 0.
      0. 0. 0. 0. 0. 255. 166. 166. 255. 255. 0. 0. 0. 0. 191. 255. 166.
      0. 0. 255. 255. 255. 255. 255. 255. 0. 0. 0. 0. 0. 0. 0. 255. 255.
      255. 0. 0. 0. 0. 0. 0. 191. 191. 191. 191. 0. 0. 0. 0. 0. 255.
      255. 0. 191. 191. 0. 0. 0. 0. 191. 255. 0. 0. 191. 191. 0. 0. 0.
      64. 255. 0. 0. 0. 191. 191. 0. 0. 191. 255. 64. 0. 0. 0. 191. 191.
      0. 0. 255. 191. 0. 0. 0. 0. 191. 191. 0. 0. 255. 255. 255. 255.
      255. 255. 255. 255. 255. 255. 0. 0. 0. 0. 0. 0. 191. 191. 0. 0. 0.
      0. 0. 0. 0. 0. 191. 255. 0. 0. 0. 0. 255. 255. 255. 255. 255. 255.
      0. 0. 0. 255. 255. 0. 0. 0. 0. 255. 255. 0. 0. 255. 0. 0. 0. 0. 0.
      0. 255. 166. 0. 255. 191. 0. 0. 0. 0. 191. 255. 0. 0. 0. 255. 255.
      255. 255. 255. 64. 0. 0. 0. 255. 255. 0. 0. 0. 0. 255. 255. 166.
      166. 255. 0. 0. 0. 0. 0. 0. 255. 255. 255. 255. 0. 0. 0. 0. 0. 0.
      255. 255. 166. 255. 191. 0. 0. 0. 0. 191. 255. 166. 0. 0. 255.
      255. 255. 255. 255. 255. 0. 0. 0. 12. 255. 255. 255. 255. 255. 73.
      0. 0. 25. 255. 163. 0. 0. 0. 98. 255. 242. 0. 255. 255. 0. 0. 0.
      0. 0. 191. 255. 0. 0. 0. 0. 0. 0. 0. 0. 214. 250. 0. 0. 0. 0. 0.
      0. 0. 178. 255. 0. 0. 0. 0. 0. 0. 119. 255. 255. 29. 0. 0. 0. 0.
      0. 91. 255. 89. 0. 0. 0. 0. 0. 0. 207. 255. 10. 0. 0. 0. 0. 0. 0.
      253. 201. 0. 0. 0. 0. 0. 11. 0. 255. 255. 255. 255. 255. 255. 255.
      255. 255. 170. 255. 255. 255. 255. 255. 255. 255. 255. 255. 255.
      0. 0. 0. 0. 0. 0. 0. 29. 255. 141. 0. 0. 0. 0. 0. 0. 0. 255. 182.
      0. 0. 0. 0. 0. 0. 0. 164. 255. 0. 0. 0. 0. 0. 0. 0. 136. 255. 35.
      0. 0. 0. 0. 0. 0. 0. 255. 140. 0. 0. 0. 0. 0. 0. 0. 241. 217. 0.
      0. 0. 0. 0. 0. 0. 226. 255. 0. 0. 0. 0. 0. 0. 0. 226. 255. 38. 0.
      0. 0. 0. 0. 0. 230. 255. 122. 0. 0. 0. 0. 0. 0. 0. 0. 57. 255.
      255. 255. 255. 210. 0. 0. 0. 236. 255. 26. 0. 0. 0. 255. 255. 0.
      96. 255. 32. 0. 0. 0. 0. 0. 223. 191. 198. 191. 0. 6. 26. 26. 26.
      0. 0. 0. 255. 57. 191. 255. 121. 76. 210. 255. 198. 0. 255. 255.
      45. 0. 0. 0. 0. 0. 255. 191. 255. 198. 0. 0. 0. 0. 0. 0. 191. 255.
      191. 255. 0. 0. 0. 0. 0. 0. 191. 255. 0. 255. 255. 0. 0. 0. 0. 83.
      255. 0. 0. 0. 210. 255. 255. 255. 255. 255. 19. 0. 0. 9. 172. 255.
      255. 255. 255. 45. 0. 0. 9. 255. 121. 0. 0. 0. 24. 255. 255. 0.
      255. 229. 0. 0. 0. 0. 0. 32. 255. 0. 0. 0. 0. 0. 0. 0. 0. 127.
      255. 0. 0. 0. 0. 0. 0. 0. 60. 255. 25. 0. 0. 0. 0. 0. 0. 244. 255.
      19. 0. 0. 0. 0. 0. 0. 255. 255. 0. 0. 0. 0. 0. 0. 159. 255. 134.
      0. 0. 0. 0. 0. 0. 255. 134. 0. 0. 0. 0. 0. 0. 0. 255. 255. 255.
      255. 255. 255. 255. 255. 255. 255. 0. 19. 210. 255. 255. 255. 255.
      57. 0. 0. 0. 255. 83. 0. 0. 0. 19. 255. 236. 0. 255. 191. 0. 0. 0.
      0. 0. 32. 255. 96. 255. 0. 0. 0. 0. 0. 0. 0. 255. 191. 255. 191.
      0. 0. 0. 0. 0. 45. 255. 255. 0. 255. 255. 76. 76. 76. 210. 236.
      191. 255. 0. 0. 26. 255. 255. 255. 26. 0. 191. 198. 128. 96. 0. 0.
      0. 0. 0. 32. 255. 96. 172. 255. 83. 0. 0. 0. 19. 255. 236. 0. 0.
      76. 255. 255. 255. 255. 255. 76. 0. 0. 0. 0. 0. 0. 0. 69. 255.
      255. 0. 0. 0. 0. 0. 0. 23. 255. 18. 255. 0. 0. 0. 0. 0. 38. 255.
      13. 89. 255. 0. 0. 0. 0. 13. 255. 0. 0. 178. 255. 0. 0. 0. 0. 255.
      179. 0. 0. 179. 255. 0. 0. 0. 255. 217. 0. 0. 0. 179. 255. 0. 0.
      206. 255. 0. 0. 0. 0. 0. 255. 0. 0. 242. 255. 255. 255. 255. 255.
      255. 255. 255. 255. 0. 0. 0. 0. 0. 0. 178. 255. 0. 0. 0. 0. 0. 0.
      0. 0. 179. 255. 0. 0. 0. 0. 0. 13. 97. 255. 255. 255. 255. 255.
      70. 255. 255. 253. 217. 76. 0. 255. 255. 38. 255. 226. 48. 0. 0.
      0. 0. 255. 255. 38. 0. 0. 0. 0. 0. 0. 0. 255. 255. 38. 0. 0. 0. 0.
      0. 0. 0. 255. 255. 38. 0. 0. 0. 0. 0. 0. 0. 255. 255. 38. 0. 0. 0.
      0. 0. 0. 0. 255. 255. 38. 0. 0. 0. 0. 0. 0. 0. 255. 255. 38. 0. 0.
      0. 0. 0. 0. 242. 255. 255. 255. 0. 0. 0. 0. 0. 0. 242. 255. 255.
      255. 0. 255. 255. 255. 255. 255. 255. 255. 255. 140. 21. 255. 54.
      0. 0. 0. 0. 0. 0. 0. 140. 255. 0. 0. 0. 0. 0. 0. 0. 0. 140. 255.
      0. 76. 89. 89. 89. 0. 0. 0. 192. 255. 255. 255. 140. 140. 157.
      255. 206. 0. 192. 164. 0. 0. 0. 0. 0. 29. 255. 203. 0. 0. 0. 0. 0.
      0. 0. 0. 147. 255. 255. 214. 0. 0. 0. 0. 0. 0. 255. 255. 157. 255.
      226. 0. 0. 0. 0. 226. 255. 140. 0. 8. 255. 255. 255. 255. 255.
      194. 0. 0. 0. 6. 255. 255. 255. 255. 255. 255. 6. 0. 0. 255. 159.
      0. 0. 0. 0. 159. 255. 0. 134. 249. 0. 0. 0. 0. 0. 0. 255. 178. 0.
      0. 0. 0. 0. 0. 0. 127. 255. 0. 0. 0. 0. 255. 255. 255. 255. 223.
      0. 0. 0. 0. 0. 57. 45. 0. 64. 255. 255. 134. 0. 0. 0. 0. 0. 0. 0.
      0. 229. 255. 236. 249. 0. 0. 0. 0. 0. 0. 172. 255. 0. 255. 159. 6.
      0. 0. 0. 159. 255. 134. 0. 6. 159. 255. 255. 255. 255. 255. 6. 0.
      0. 6. 255. 255. 255. 255. 255. 159. 6. 0. 134. 255. 159. 0. 0. 0.
      0. 159. 255. 0. 255. 229. 0. 0. 0. 0. 0. 0. 229. 198. 255. 229. 0.
      0. 0. 0. 0. 0. 229. 255. 178. 255. 0. 0. 0. 0. 0. 32. 255. 255. 0.
      255. 255. 198. 191. 191. 255. 255. 0. 255. 0. 0. 0. 0. 191. 191.
      0. 0. 229. 255. 236. 191. 0. 0. 0. 0. 0. 0. 255. 178. 0. 255. 159.
      6. 0. 0. 64. 255. 255. 0. 0. 6. 159. 255. 255. 255. 255. 64. 0. 0.
      0. 16. 207. 255. 255. 255. 255. 207. 16. 0. 0. 255. 112. 0. 0. 0.
      0. 255. 255. 0. 0. 255. 0. 0. 0. 0. 0. 0. 255. 0. 0. 255. 207. 0.
      0. 0. 0. 207. 255. 0. 0. 0. 191. 255. 255. 255. 255. 191. 0. 0. 0.
      255. 255. 48. 0. 0. 48. 255. 255. 0. 191. 239. 0. 0. 0. 0. 0. 0.
      239. 207. 207. 191. 0. 0. 0. 0. 0. 0. 191. 207. 0. 255. 112. 0. 0.
      0. 0. 112. 255. 0. 0. 16. 207. 255. 255. 255. 255. 207. 16. 0. 0.
      6. 159. 255. 255. 255. 255. 255. 6. 0. 0. 255. 255. 6. 0. 0. 0.
      159. 255. 0. 198. 249. 0. 0. 0. 0. 0. 0. 191. 134. 255. 57. 0.
      172. 191. 191. 191. 0. 0. 0. 255. 64. 255. 191. 0. 0. 191. 255.
      255. 0. 255. 236. 0. 0. 0. 0. 0. 0. 255. 178. 255. 229. 0. 0. 0.
      0. 0. 0. 229. 255. 198. 229. 0. 0. 0. 0. 0. 0. 249. 178. 0. 255.
      255. 6. 0. 0. 6. 255. 255. 0. 0. 0. 159. 255. 255. 255. 255. 159.
      0. 0. 0. 0. 0. 0. 0. 112. 255. 255. 255. 255. 0. 138. 229. 255.
      255. 209. 26. 26. 255. 255. 153. 255. 255. 77. 0. 0. 0. 255. 255.
      255. 0. 0. 0. 0. 0. 0. 0. 255. 255. 255. 0. 0. 0. 0. 0. 0. 0. 255.
      255. 255. 0. 0. 0. 0. 0. 0. 0. 255. 255. 255. 0. 0. 0. 0. 0. 0. 0.
      255. 255. 255. 0. 0. 0. 0. 0. 0. 0. 255. 255. 255. 0. 0. 0. 0. 0.
      0. 0. 255. 255. 255. 0. 0. 0. 0. 0. 0. 0. 255. 255. 255. 0. 0.
      242. 255. 255. 255. 255. 242. 0. 0. 0. 255. 255. 0. 0. 0. 31. 255.
      247. 0. 153. 255. 0. 0. 0. 0. 0. 0. 255. 153. 54. 255. 166. 0. 0.
      0. 0. 166. 255. 0. 0. 0. 255. 255. 140. 140. 255. 255. 0. 0. 0.
      227. 255. 140. 84. 84. 140. 255. 227. 0. 255. 255. 0. 0. 0. 0. 0.
      0. 255. 255. 255. 255. 0. 0. 0. 0. 0. 0. 255. 255. 130. 255. 38.
      0. 0. 0. 0. 38. 255. 130. 0. 194. 255. 255. 255. 255. 255. 255. 0.
      0. 0. 0. 0. 0. 4. 13. 243. 255. 255. 38. 6. 38. 201. 255. 255.
      230. 217. 255. 255. 38. 255. 255. 255. 182. 0. 0. 0. 255. 255. 38.
      0. 0. 0. 0. 0. 0. 0. 255. 255. 38. 0. 0. 0. 0. 0. 0. 0. 255. 255.
      38. 0. 0. 0. 0. 0. 0. 0. 255. 255. 38. 0. 0. 0. 0. 0. 0. 0. 255.
      255. 38. 0. 0. 0. 0. 0. 0. 0. 255. 255. 38. 0. 0. 0. 0. 0. 0. 0.
      255. 255. 222. 0. 0. 0. 0. 0. 0. 0. 255. 255. 255. 255. 255. 255.
      255. 255. 255. 255. 255. 255. 255. 0. 0. 0. 0. 0. 0. 0. 0. 255.
      153. 0. 0. 0. 0. 0. 0. 0. 64. 255. 0. 0. 0. 0. 0. 0. 0. 204. 255.
      133. 0. 0. 0. 0. 0. 0. 0. 255. 140. 0. 0. 0. 0. 0. 0. 0. 255. 255.
      0. 0. 0. 0. 0. 0. 0. 201. 255. 18. 0. 0. 0. 0. 0. 0. 204. 255. 25.
      0. 0. 0. 0. 0. 0. 0. 255. 153. 0. 0. 0. 0. 0. 0. 0. 255. 206. 0.
      0. 0. 0. 0. 0. 0. 22. 214. 255. 255. 255. 255. 214. 22. 0. 0. 255.
      64. 0. 0. 0. 0. 245. 255. 0. 191. 255. 0. 0. 0. 0. 0. 0. 255. 191.
      0. 255. 64. 0. 0. 0. 0. 150. 255. 0. 0. 0. 191. 255. 255. 255.
      255. 191. 0. 0. 0. 255. 255. 29. 0. 0. 29. 255. 255. 0. 255. 191.
      0. 0. 0. 0. 0. 0. 191. 255. 255. 191. 0. 0. 0. 0. 0. 0. 191. 255.
      191. 255. 61. 0. 0. 0. 0. 61. 255. 191. 0. 22. 214. 255. 255. 255.
      255. 214. 22. 0. 0. 89. 255. 255. 255. 255. 255. 172. 0. 0. 178.
      255. 121. 0. 0. 0. 0. 249. 255. 0. 255. 229. 0. 0. 0. 0. 0. 0.
      255. 134. 0. 0. 0. 0. 0. 0. 0. 127. 255. 0. 0. 0. 0. 0. 0. 0. 60.
      255. 25. 0. 0. 0. 0. 0. 0. 244. 255. 19. 0. 0. 0. 0. 0. 0. 255.
      255. 0. 0. 0. 0. 0. 0. 159. 255. 134. 0. 0. 0. 0. 0. 0. 255. 255.
      1. 0. 0. 0. 0. 0. 0. 255. 255. 255. 255. 255. 255. 255. 255. 255.
      255. 0. 0. 0. 0. 0. 92. 255. 255. 0. 0. 0. 0. 0. 0. 25. 255. 0.
      255. 0. 0. 0. 0. 0. 0. 255. 26. 0. 255. 0. 0. 0. 0. 0. 255. 46. 0.
      0. 255. 0. 0. 0. 0. 255. 71. 0. 0. 0. 255. 0. 0. 0. 255. 127. 0.
      0. 0. 0. 255. 0. 0. 235. 255. 0. 15. 51. 0. 36. 255. 0. 51. 255.
      255. 255. 255. 255. 255. 255. 255. 255. 255. 0. 0. 0. 0. 0. 0. 0.
      255. 0. 0. 0. 0. 0. 0. 0. 0. 178. 255. 0. 0. 0. 0. 0. 0. 0. 102.
      194. 255. 255. 255. 10. 51. 255. 255. 255. 163. 0. 0. 255. 255.
      255. 255. 255. 0. 0. 0. 0. 255. 255. 255. 0. 0. 0. 0. 0. 0. 0.
      255. 255. 255. 0. 0. 0. 0. 0. 0. 0. 255. 255. 255. 0. 0. 0. 0. 0.
      0. 0. 255. 255. 255. 0. 0. 0. 0. 0. 0. 0. 255. 255. 255. 0. 0. 0.
      0. 0. 0. 0. 255. 255. 255. 0. 0. 0. 0. 0. 0. 0. 255. 255. 255. 0.
      0. 0. 0. 0. 0. 0. 255. 255. 255. 0. 1. 134. 255. 255. 255. 255.
      134. 0. 0. 0. 255. 236. 0. 0. 0. 0. 236. 255. 0. 0. 255. 0. 0. 0.
      0. 0. 127. 255. 0. 0. 255. 172. 0. 0. 0. 0. 172. 255. 0. 0. 0.
      255. 255. 255. 255. 255. 197. 0. 0. 0. 255. 255. 115. 0. 0. 115.
      255. 255. 0. 228. 238. 0. 0. 0. 0. 0. 0. 255. 179. 198. 249. 0. 0.
      0. 0. 0. 0. 249. 198. 27. 255. 236. 22. 0. 0. 22. 236. 255. 0. 0.
      1. 134. 255. 255. 255. 255. 13. 0. 0. 0. 0. 13. 255. 255. 255.
      255. 255. 0. 0. 0. 244. 255. 98. 0. 0. 0. 245. 255. 25. 166. 255.
      0. 0. 0. 0. 0. 0. 194. 124. 255. 170. 0. 89. 230. 255. 89. 22. 0.
      0. 255. 12. 150. 192. 140. 140. 140. 255. 248. 0. 255. 255. 86. 0.
      0. 0. 0. 0. 255. 166. 255. 255. 0. 0. 0. 0. 0. 0. 98. 255. 166.
      255. 0. 0. 0. 0. 0. 0. 255. 188. 0. 244. 255. 98. 0. 0. 98. 255.
      255. 0. 0. 0. 13. 255. 255. 255. 255. 13. 0. 0. 0. 0. 0. 0. 0. 0.
      255. 255. 0. 0. 0. 0. 0. 0. 51. 255. 102. 255. 0. 0. 0. 0. 0. 0.
      255. 51. 102. 255. 0. 0. 0. 0. 0. 255. 204. 0. 102. 255. 0. 0. 0.
      0. 255. 255. 0. 0. 102. 255. 0. 0. 0. 255. 255. 0. 0. 0. 102. 255.
      0. 0. 204. 255. 0. 0. 0. 0. 102. 255. 0. 0. 204. 255. 255. 255.
      255. 255. 255. 255. 255. 255. 0. 0. 0. 0. 0. 0. 102. 255. 0. 0. 0.
      0. 0. 0. 0. 0. 102. 255. 0. 0. 0. 0. 255. 255. 255. 255. 255. 73.
      0. 0. 25. 255. 163. 0. 0. 0. 98. 255. 242. 0. 255. 255. 0. 0. 0.
      0. 0. 191. 255. 0. 0. 0. 0. 0. 0. 0. 0. 191. 250. 0. 0. 0. 0. 0.
      0. 0. 178. 255. 0. 0. 0. 0. 0. 0. 0. 255. 255. 64. 0. 0. 0. 0. 0.
      91. 255. 230. 0. 0. 0. 0. 0. 0. 207. 255. 38. 0. 0. 0. 0. 0. 0.
      253. 201. 0. 0. 0. 0. 0. 0. 0. 255. 255. 255. 255. 255. 255. 255.
      255. 255. 255. 0. 0. 73. 255. 255. 255. 255. 73. 0. 0. 0. 255.
      245. 0. 0. 0. 0. 245. 244. 0. 166. 255. 0. 0. 0. 0. 0. 0. 255. 0.
      0. 0. 0. 0. 0. 0. 0. 214. 250. 0. 0. 0. 29. 255. 255. 136. 255.
      255. 0. 0. 0. 0. 0. 115. 115. 115. 115. 255. 249. 0. 0. 0. 0. 0.
      0. 0. 0. 0. 255. 224. 255. 255. 0. 0. 0. 0. 0. 0. 255. 188. 25.
      255. 255. 98. 0. 0. 98. 245. 255. 0. 0. 0. 13. 255. 255. 255. 255.
      13. 0. 0. 0. 0. 0. 0. 0. 69. 255. 255. 0. 0. 0. 0. 0. 0. 23. 255.
      18. 255. 0. 0. 0. 0. 0. 38. 255. 13. 89. 255. 0. 0. 0. 0. 13. 255.
      0. 0. 178. 255. 0. 0. 0. 0. 255. 179. 0. 0. 179. 255. 0. 0. 0.
      255. 217. 0. 0. 0. 179. 255. 0. 0. 206. 255. 0. 0. 0. 0. 0. 255.
      0. 0. 242. 255. 255. 255. 255. 255. 255. 255. 255. 255. 0. 0. 0.
      0. 0. 0. 178. 255. 0. 0. 0. 0. 0. 0. 0. 0. 179. 255. 0. 0. 0. 0.
      210. 255. 255. 255. 255. 57. 0. 0. 0. 255. 255. 0. 0. 0. 19. 255.
      236. 0. 191. 255. 0. 0. 0. 0. 0. 64. 255. 0. 0. 0. 0. 0. 0. 0. 0.
      255. 255. 0. 0. 0. 0. 179. 179. 179. 255. 210. 0. 0. 0. 0. 0. 179.
      179. 45. 179. 255. 255. 0. 0. 0. 0. 0. 0. 0. 0. 0. 255. 191. 255.
      191. 0. 0. 0. 0. 0. 0. 191. 223. 172. 255. 83. 0. 0. 0. 0. 83.
      255. 172. 0. 76. 255. 255. 255. 255. 255. 255. 19. 0. 0. 19. 210.
      255. 255. 255. 255. 57. 0. 0. 0. 255. 83. 0. 0. 0. 19. 255. 236.
      0. 255. 191. 0. 0. 0. 0. 0. 32. 255. 96. 255. 0. 0. 0. 0. 0. 0. 0.
      255. 191. 255. 191. 0. 0. 0. 0. 0. 45. 255. 255. 0. 255. 255. 76.
      76. 76. 210. 236. 191. 255. 0. 0. 26. 255. 255. 255. 26. 0. 191.
      198. 128. 96. 0. 0. 0. 0. 0. 32. 255. 96. 172. 255. 83. 0. 0. 0.
      19. 255. 236. 0. 0. 76. 255. 255. 255. 255. 255. 76. 0. 0. 0. 0.
      210. 255. 255. 255. 255. 76. 0. 0. 0. 255. 255. 0. 0. 0. 19. 255.
      255. 0. 191. 255. 0. 0. 0. 0. 0. 0. 255. 96. 0. 255. 83. 0. 0. 0.
      0. 83. 255. 0. 0. 19. 210. 255. 179. 179. 255. 210. 19. 0. 0. 255.
      255. 134. 0. 0. 134. 255. 255. 0. 248. 198. 0. 0. 0. 0. 0. 0. 198.
      191. 255. 191. 0. 0. 0. 0. 0. 0. 191. 255. 172. 255. 83. 0. 0. 0.
      0. 83. 255. 172. 0. 76. 255. 255. 255. 255. 255. 255. 76. 0. 0. 0.
      57. 255. 255. 255. 255. 210. 0. 0. 0. 236. 255. 26. 0. 0. 0. 255.
      255. 0. 96. 255. 32. 0. 0. 0. 0. 0. 223. 191. 198. 191. 0. 6. 26.
      26. 26. 0. 0. 0. 255. 57. 191. 255. 121. 76. 210. 255. 198. 0.
      255. 255. 45. 0. 0. 0. 0. 0. 255. 191. 255. 198. 0. 0. 0. 0. 0. 0.
      191. 255. 191. 255. 0. 0. 0. 0. 0. 0. 191. 255. 0. 255. 255. 0. 0.
      0. 0. 83. 255. 0. 0. 0. 210. 255. 255. 255. 255. 255. 19. 0. 0. 0.
      0. 255. 255. 255. 255. 0. 0. 0. 0. 255. 255. 115. 0. 0. 115. 255.
      242. 0. 166. 255. 0. 0. 0. 0. 0. 0. 255. 0. 166. 255. 0. 0. 0. 0.
      0. 0. 255. 166. 166. 255. 0. 0. 0. 0. 0. 0. 255. 166. 0. 255. 255.
      255. 0. 38. 255. 255. 13. 255. 0. 0. 0. 140. 255. 255. 0. 0. 255.
      166. 166. 255. 0. 0. 0. 0. 0. 0. 255. 0. 0. 255. 255. 0. 0. 0.
      115. 255. 242. 0. 0. 0. 64. 255. 255. 255. 255. 0. 0. 0. 0. 0. 0.
      255. 255. 255. 255. 0. 0. 0. 0. 255. 255. 0. 0. 0. 0. 255. 255. 0.
      153. 255. 0. 0. 0. 0. 0. 0. 255. 153. 0. 0. 0. 0. 0. 0. 0. 0. 255.
      153. 0. 0. 0. 0. 0. 0. 0. 255. 255. 0. 0. 0. 0. 0. 0. 153. 255.
      255. 0. 0. 0. 0. 0. 0. 255. 255. 51. 0. 0. 0. 0. 0. 0. 255. 255.
      0. 0. 0. 0. 0. 0. 204. 255. 0. 0. 0. 0. 0. 0. 0. 153. 255. 255.
      255. 255. 255. 255. 255. 255. 255. 0. 0. 64. 255. 255. 255. 255.
      64. 0. 0. 0. 242. 255. 0. 0. 0. 0. 255. 242. 0. 166. 255. 191. 0.
      0. 0. 0. 0. 255. 166. 0. 0. 0. 0. 0. 0. 0. 191. 255. 0. 0. 0. 0.
      255. 255. 255. 255. 255. 0. 0. 0. 0. 0. 255. 255. 255. 255. 255.
      255. 0. 0. 0. 0. 0. 0. 0. 0. 0. 255. 255. 255. 255. 0. 0. 0. 0. 0.
      0. 255. 255. 0. 255. 255. 0. 0. 0. 0. 191. 255. 166. 0. 0. 255.
      255. 255. 255. 255. 255. 0. 0. 0. 0. 0. 0. 0. 64. 255. 255. 0. 0.
      0. 0. 0. 0. 191. 255. 0. 255. 0. 0. 0. 0. 0. 64. 255. 0. 0. 255.
      0. 0. 0. 0. 191. 255. 64. 0. 191. 255. 0. 0. 0. 0. 255. 191. 0. 0.
      191. 255. 0. 0. 0. 255. 64. 0. 0. 0. 191. 255. 0. 0. 255. 255. 0.
      0. 0. 0. 191. 255. 0. 0. 255. 255. 255. 255. 255. 255. 255. 255.
      255. 255. 0. 0. 0. 0. 0. 0. 191. 255. 0. 0. 0. 0. 0. 0. 0. 0. 191.
      255. 0. 0. 0. 0. 0. 255. 255. 255. 255. 64. 0. 0. 0. 242. 255.
      115. 0. 0. 0. 255. 255. 0. 166. 255. 0. 0. 0. 0. 0. 0. 255. 166.
      166. 255. 0. 0. 217. 255. 0. 0. 0. 0. 166. 13. 64. 255. 255. 255.
      255. 255. 242. 0. 166. 255. 191. 0. 0. 0. 0. 0. 255. 166. 166.
      255. 0. 0. 0. 0. 0. 0. 255. 255. 166. 255. 0. 0. 0. 0. 0. 0. 255.
      166. 0. 242. 255. 115. 0. 0. 0. 255. 255. 0. 0. 0. 64. 255. 255.
      255. 255. 64. 0. 0. 255. 255. 255. 255. 255. 255. 255. 255. 255.
      255. 0. 0. 0. 0. 0. 0. 0. 0. 255. 153. 0. 0. 0. 0. 0. 0. 0. 255.
      255. 0. 0. 0. 0. 0. 0. 0. 204. 255. 0. 0. 0. 0. 0. 0. 0. 153. 255.
      255. 0. 0. 0. 0. 0. 0. 102. 255. 255. 0. 0. 0. 0. 0. 0. 0. 255.
      255. 0. 0. 0. 0. 0. 0. 0. 255. 255. 0. 0. 0. 0. 0. 0. 0. 255. 255.
      153. 0. 0. 0. 0. 0. 0. 0. 255. 204. 0. 0. 0. 0. 0. 0. 0. 6. 159.
      255. 255. 255. 255. 255. 6. 0. 0. 255. 255. 6. 0. 0. 0. 159. 255.
      0. 198. 249. 0. 0. 0. 0. 0. 0. 191. 134. 255. 57. 0. 172. 191.
      191. 191. 0. 0. 0. 255. 64. 255. 191. 0. 0. 191. 255. 255. 0. 255.
      236. 0. 0. 0. 0. 0. 0. 255. 178. 255. 229. 0. 0. 0. 0. 0. 0. 229.
      255. 198. 229. 0. 0. 0. 0. 0. 0. 249. 178. 0. 255. 255. 6. 0. 0.
      6. 255. 255. 0. 0. 0. 159. 255. 255. 255. 255. 159. 0. 0. 0. 6.
      255. 255. 255. 255. 255. 159. 0. 0. 134. 255. 159. 0. 0. 0. 6.
      255. 255. 0. 255. 229. 0. 0. 0. 0. 0. 127. 255. 0. 0. 0. 0. 0. 0.
      0. 0. 127. 255. 0. 0. 0. 0. 0. 0. 0. 83. 255. 19. 0. 0. 0. 0. 0.
      0. 236. 255. 32. 0. 0. 0. 0. 0. 0. 255. 210. 0. 0. 0. 0. 0. 0. 96.
      255. 178. 0. 0. 0. 0. 0. 0. 255. 223. 0. 0. 0. 0. 0. 0. 0. 255.
      255. 255. 255. 255. 255. 255. 255. 255. 255. 0. 255. 255. 255.
      255. 255. 255. 255. 255. 0. 0. 255. 127. 0. 0. 0. 0. 0. 0. 0. 0.
      255. 0. 0. 0. 0. 0. 0. 0. 0. 0. 255. 0. 0. 191. 191. 172. 0. 0. 0.
      178. 255. 255. 198. 191. 191. 198. 255. 255. 0. 178. 255. 0. 0. 0.
      0. 0. 32. 255. 178. 0. 0. 0. 0. 0. 0. 0. 0. 229. 255. 236. 249. 0.
      0. 0. 0. 0. 0. 229. 198. 134. 255. 159. 0. 0. 0. 0. 159. 255. 0.
      0. 6. 255. 255. 255. 255. 255. 255. 6. 0. 0. 0. 242. 255. 255.
      255. 255. 255. 194. 0. 0. 247. 255. 38. 0. 0. 0. 38. 255. 130.
      153. 255. 64. 0. 0. 0. 0. 0. 102. 179. 255. 255. 0. 33. 201. 255.
      166. 0. 0. 0. 255. 163. 255. 227. 115. 115. 115. 255. 255. 0. 255.
      255. 0. 0. 0. 0. 0. 0. 163. 255. 255. 255. 0. 0. 0. 0. 0. 0. 51.
      255. 153. 255. 64. 0. 0. 0. 0. 0. 102. 255. 0. 204. 255. 38. 0. 0.
      31. 255. 255. 130. 0. 0. 0. 245. 255. 255. 255. 242. 0. 0. 0. 157.
      242. 255. 255. 255. 255. 242. 0. 0. 140. 255. 92. 6. 0. 0. 6. 255.
      255. 119. 255. 255. 0. 0. 0. 0. 0. 0. 255. 140. 0. 0. 0. 0. 0. 0.
      0. 64. 255. 140. 0. 0. 0. 0. 0. 0. 38. 255. 206. 0. 0. 0. 0. 0. 0.
      255. 255. 105. 0. 0. 0. 0. 0. 76. 255. 250. 141. 0. 0. 0. 0. 0.
      48. 255. 194. 0. 0. 0. 0. 0. 21. 255. 255. 38. 0. 0. 0. 0. 38. 21.
      249. 255. 255. 255. 255. 255. 255. 255. 255. 255. 0. 0. 255. 255.
      255. 255. 255. 242. 0. 0. 0. 255. 38. 0. 0. 0. 0. 255. 255. 0.
      153. 255. 0. 0. 0. 0. 0. 0. 255. 153. 54. 255. 166. 0. 0. 0. 0.
      166. 255. 0. 0. 0. 255. 255. 255. 255. 255. 255. 0. 0. 69. 255.
      140. 0. 0. 0. 0. 140. 255. 69. 255. 255. 0. 0. 0. 0. 0. 0. 255.
      255. 255. 255. 0. 0. 0. 0. 0. 0. 255. 255. 130. 255. 38. 0. 0. 0.
      0. 255. 255. 130. 0. 0. 242. 255. 255. 255. 255. 242. 0. 0. 0. 89.
      255. 255. 255. 255. 255. 172. 0. 0. 178. 255. 121. 0. 0. 0. 0.
      249. 255. 0. 255. 229. 0. 0. 0. 0. 0. 0. 255. 134. 0. 0. 0. 0. 0.
      0. 0. 127. 255. 0. 0. 0. 0. 0. 0. 0. 60. 255. 25. 0. 0. 0. 0. 0.
      0. 244. 255. 19. 0. 0. 0. 0. 0. 0. 255. 255. 0. 0. 0. 0. 0. 0.
      159. 255. 134. 0. 0. 0. 0. 0. 0. 255. 255. 1. 0. 0. 0. 0. 0. 0.
      255. 255. 255. 255. 255. 255. 255. 255. 255. 255. 0. 255. 255.
      255. 255. 255. 255. 255. 255. 0. 0. 255. 0. 0. 0. 0. 0. 0. 0. 0.
      0. 255. 0. 0. 0. 0. 0. 0. 0. 0. 191. 255. 0. 29. 115. 115. 115. 0.
      0. 0. 191. 255. 255. 217. 217. 217. 217. 255. 255. 0. 191. 201. 0.
      0. 0. 0. 0. 10. 255. 191. 0. 0. 0. 0. 0. 0. 0. 0. 191. 255. 255.
      191. 0. 0. 0. 0. 0. 0. 191. 255. 191. 255. 61. 0. 0. 0. 0. 61.
      255. 10. 0. 22. 255. 255. 255. 255. 255. 255. 22. 0. 0. 0. 0. 0.
      0. 102. 194. 255. 255. 255. 10. 51. 255. 255. 255. 163. 0. 0. 255.
      255. 255. 255. 255. 0. 0. 0. 0. 255. 255. 255. 0. 0. 0. 0. 0. 0.
      0. 255. 255. 255. 0. 0. 0. 0. 0. 0. 0. 255. 255. 255. 0. 0. 0. 0.
      0. 0. 0. 255. 255. 255. 0. 0. 0. 0. 0. 0. 0. 255. 255. 255. 0. 0.
      0. 0. 0. 0. 0. 255. 255. 255. 0. 0. 0. 0. 0. 0. 0. 255. 255. 255.
      0. 0. 0. 0. 0. 0. 0. 255. 255. 255. 0. 0. 255. 255. 255. 255. 255.
      255. 0. 0. 166. 255. 191. 0. 0. 0. 0. 191. 255. 0. 166. 255. 0. 0.
      0. 0. 0. 0. 255. 0. 166. 255. 191. 0. 0. 0. 0. 191. 255. 0. 0. 0.
      64. 255. 255. 255. 255. 64. 0. 0. 166. 255. 255. 0. 0. 0. 0. 255.
      255. 0. 255. 255. 0. 0. 0. 0. 0. 0. 255. 166. 255. 255. 0. 0. 0.
      0. 0. 0. 255. 255. 166. 255. 191. 0. 0. 0. 0. 191. 255. 0. 0. 0.
      255. 255. 255. 255. 255. 255. 0. 0. 0. 0. 255. 255. 255. 255. 255.
      255. 0. 0. 0. 255. 255. 26. 0. 0. 0. 255. 255. 0. 0. 255. 0. 0. 0.
      0. 0. 0. 255. 179. 179. 255. 0. 0. 255. 255. 229. 0. 0. 0. 179.
      229. 255. 255. 179. 0. 255. 255. 255. 0. 255. 255. 0. 0. 0. 0. 0.
      0. 255. 179. 179. 255. 0. 0. 0. 0. 0. 0. 229. 255. 0. 255. 0. 0.
      0. 0. 0. 0. 255. 179. 0. 255. 255. 26. 0. 0. 0. 255. 255. 0. 0. 0.
      128. 255. 255. 255. 255. 128. 0. 0. 0. 0. 255. 255. 255. 255. 255.
      255. 0. 0. 166. 255. 191. 0. 0. 0. 0. 255. 255. 0. 255. 255. 0. 0.
      0. 0. 0. 0. 255. 166. 255. 13. 0. 0. 0. 0. 0. 0. 255. 166. 166.
      255. 0. 0. 0. 0. 0. 191. 255. 166. 0. 255. 255. 255. 255. 255.
      255. 64. 13. 255. 0. 0. 0. 0. 0. 217. 0. 0. 255. 166. 166. 255. 0.
      0. 0. 0. 0. 0. 255. 166. 166. 255. 191. 0. 0. 0. 115. 255. 242. 0.
      0. 0. 255. 255. 255. 255. 255. 0. 0. 0. 0. 0. 255. 255. 255. 255.
      255. 255. 0. 0. 166. 255. 163. 0. 0. 0. 0. 245. 244. 0. 233. 255.
      0. 0. 0. 0. 0. 0. 255. 0. 0. 0. 0. 0. 0. 0. 0. 191. 255. 0. 0. 0.
      0. 0. 0. 0. 178. 255. 133. 0. 0. 0. 0. 0. 0. 255. 255. 29. 0. 0.
      0. 0. 0. 91. 255. 230. 0. 0. 0. 0. 0. 0. 207. 255. 64. 0. 0. 0. 0.
      0. 141. 253. 255. 0. 0. 0. 0. 163. 217. 141. 170. 255. 255. 255.
      255. 255. 255. 255. 255. 170. 255. 255. 255. 255. 255. 255. 255.
      255. 255. 255. 0. 0. 0. 0. 0. 0. 0. 29. 255. 141. 0. 0. 0. 0. 0.
      0. 0. 255. 182. 0. 0. 0. 0. 0. 0. 0. 255. 255. 0. 0. 0. 0. 0. 0.
      0. 136. 255. 35. 0. 0. 0. 0. 0. 0. 119. 255. 63. 0. 0. 0. 0. 0. 0.
      0. 255. 217. 0. 0. 0. 0. 0. 0. 0. 226. 255. 0. 0. 0. 0. 0. 0. 0.
      226. 255. 38. 0. 0. 0. 0. 0. 0. 230. 255. 115. 0. 0. 0. 0. 0. 0.
      0. 0. 0. 0. 0. 10. 255. 255. 0. 0. 0. 0. 0. 0. 51. 255. 217. 255.
      0. 0. 0. 0. 0. 0. 255. 51. 0. 255. 0. 0. 0. 0. 0. 255. 204. 0. 0.
      255. 0. 0. 0. 0. 255. 186. 0. 0. 102. 255. 0. 0. 0. 186. 255. 0.
      0. 0. 0. 255. 0. 0. 133. 255. 0. 0. 166. 33. 66. 255. 0. 133. 217.
      255. 255. 255. 255. 255. 255. 255. 255. 217. 0. 0. 0. 0. 0. 0. 0.
      255. 0. 0. 0. 0. 0. 0. 0. 0. 102. 255. 0. 0. 0. 0. 0. 0. 0. 255.
      255. 255. 0. 0. 0. 0. 0. 0. 255. 255. 102. 255. 0. 0. 0. 0. 0.
      153. 255. 0. 102. 255. 0. 0. 0. 0. 255. 255. 0. 0. 255. 255. 0. 0.
      0. 102. 255. 0. 0. 0. 255. 255. 0. 0. 0. 255. 0. 0. 0. 0. 102. 0.
      0. 0. 255. 255. 0. 255. 255. 255. 255. 255. 255. 204. 255. 255.
      255. 255. 255. 255. 255. 255. 255. 204. 0. 0. 0. 0. 0. 0. 255.
      255. 0. 0. 0. 0. 0. 0. 0. 0. 255. 255. 0. 0. 0. 0. 255. 255. 255.
      255. 255. 255. 0. 0. 153. 255. 255. 0. 0. 0. 0. 255. 255. 0. 255.
      255. 0. 0. 0. 0. 0. 0. 255. 153. 0. 0. 0. 0. 0. 0. 0. 255. 255. 0.
      0. 0. 0. 255. 255. 255. 255. 255. 0. 0. 0. 0. 0. 0. 0. 0. 0. 255.
      255. 0. 0. 0. 0. 0. 0. 0. 0. 0. 255. 255. 255. 255. 0. 0. 0. 0. 0.
      0. 51. 255. 153. 255. 255. 0. 0. 0. 0. 255. 255. 153. 0. 0. 0.
      255. 255. 255. 255. 255. 0. 0. 0. 0. 255. 255. 255. 255. 255. 255.
      0. 0. 0. 255. 255. 0. 0. 0. 0. 255. 255. 153. 153. 255. 0. 0. 0.
      0. 0. 0. 255. 255. 255. 51. 0. 0. 255. 255. 51. 0. 0. 0. 255. 51.
      255. 255. 0. 0. 204. 255. 255. 0. 255. 255. 0. 0. 0. 0. 0. 0. 255.
      255. 255. 51. 0. 0. 0. 0. 0. 0. 51. 255. 153. 255. 0. 0. 0. 0. 0.
      0. 255. 255. 0. 255. 255. 0. 0. 0. 0. 255. 255. 0. 0. 0. 0. 255.
      255. 255. 255. 0. 0. 0. 0. 0. 255. 255. 255. 255. 255. 255. 0. 0.
      0. 255. 255. 0. 0. 0. 0. 255. 255. 0. 153. 255. 0. 0. 0. 0. 0. 0.
      255. 153. 0. 255. 255. 0. 0. 0. 0. 0. 255. 0. 0. 0. 255. 255. 255.
      255. 255. 255. 0. 0. 153. 255. 255. 0. 0. 0. 0. 255. 255. 153.
      255. 255. 0. 0. 0. 0. 0. 0. 51. 255. 255. 255. 0. 0. 0. 0. 0. 0.
      51. 255. 153. 255. 255. 0. 0. 0. 0. 255. 255. 153. 0. 0. 0. 255.
      255. 255. 255. 255. 0. 0. 0. 0. 255. 255. 255. 255. 255. 64. 0. 0.
      0. 255. 191. 0. 0. 0. 0. 255. 255. 0. 255. 255. 0. 0. 0. 0. 0. 0.
      255. 166. 255. 255. 0. 0. 0. 0. 0. 0. 255. 255. 166. 255. 0. 0. 0.
      0. 0. 191. 255. 255. 0. 242. 255. 255. 255. 255. 255. 64. 13. 255.
      0. 0. 0. 0. 0. 0. 0. 0. 255. 255. 166. 255. 0. 0. 0. 0. 0. 191.
      255. 166. 0. 255. 255. 0. 0. 0. 115. 255. 242. 0. 0. 0. 64. 255.
      255. 255. 255. 0. 0. 0. 0. 0. 210. 255. 255. 255. 255. 76. 0. 0.
      0. 255. 255. 0. 0. 0. 19. 255. 255. 0. 191. 255. 0. 0. 0. 0. 0. 0.
      255. 96. 0. 255. 83. 0. 0. 0. 0. 83. 255. 0. 0. 19. 210. 255. 179.
      179. 255. 210. 19. 0. 0. 255. 255. 134. 0. 0. 134. 255. 255. 0.
      248. 198. 0. 0. 0. 0. 0. 0. 198. 191. 255. 191. 0. 0. 0. 0. 0. 0.
      191. 255. 172. 255. 83. 0. 0. 0. 0. 83. 255. 172. 0. 76. 255. 255.
      255. 255. 255. 255. 76. 0. 0. 0. 0. 0. 0. 69. 255. 255. 0. 0. 0.
      0. 0. 0. 23. 255. 18. 255. 0. 0. 0. 0. 0. 38. 255. 13. 89. 255. 0.
      0. 0. 0. 13. 255. 0. 0. 178. 255. 0. 0. 0. 0. 255. 179. 0. 0. 179.
      255. 0. 0. 0. 255. 217. 0. 0. 0. 179. 255. 0. 0. 206. 255. 0. 0.
      0. 0. 0. 255. 0. 0. 242. 255. 255. 255. 255. 255. 255. 255. 255.
      255. 0. 0. 0. 0. 0. 0. 178. 255. 0. 0. 0. 0. 0. 0. 0. 0. 179. 255.
      0. 0. 0. 9. 172. 255. 255. 255. 255. 45. 0. 0. 9. 255. 121. 0. 0.
      0. 24. 255. 255. 0. 255. 229. 0. 0. 0. 0. 0. 32. 255. 0. 0. 0. 0.
      0. 0. 0. 0. 127. 255. 0. 0. 0. 0. 0. 0. 0. 60. 255. 25. 0. 0. 0.
      0. 0. 0. 244. 255. 19. 0. 0. 0. 0. 0. 0. 255. 255. 0. 0. 0. 0. 0.
      0. 159. 255. 134. 0. 0. 0. 0. 0. 0. 255. 134. 0. 0. 0. 0. 0. 0. 0.
      255. 255. 255. 255. 255. 255. 255. 255. 255. 255. 0. 0. 0. 0. 0.
      18. 189. 255. 255. 255. 0. 8. 255. 255. 255. 252. 97. 242. 255.
      255. 255. 255. 255. 38. 0. 0. 0. 191. 255. 255. 0. 0. 0. 0. 0. 0.
      0. 255. 255. 255. 0. 0. 0. 0. 0. 0. 0. 255. 255. 255. 0. 0. 0. 0.
      0. 0. 0. 255. 255. 255. 0. 0. 0. 0. 0. 0. 0. 255. 255. 255. 0. 0.
      0. 0. 0. 0. 0. 255. 255. 255. 0. 0. 0. 0. 0. 0. 0. 255. 255. 255.
      0. 0. 0. 0. 0. 0. 0. 255. 255. 255. 0. 0. 0. 0. 89. 255. 255. 255.
      255. 255. 255. 255. 255. 255. 166. 0. 0. 255. 255. 38. 38. 140. 0.
      0. 0. 0. 0. 255. 255. 38. 0. 0. 0. 0. 0. 0. 0. 255. 255. 38. 0. 0.
      0. 0. 0. 0. 0. 255. 255. 38. 0. 0. 0. 0. 0. 0. 0. 255. 255. 38. 0.
      0. 0. 0. 0. 0. 0. 255. 255. 38. 0. 0. 0. 0. 0. 0. 0. 255. 255. 38.
      0. 0. 0. 0. 0. 0. 242. 255. 255. 255. 0. 0. 0. 0. 0. 0. 242. 255.
      255. 255. 255. 255. 255. 255. 255. 255. 255. 255. 255. 170. 0. 0.
      0. 0. 0. 0. 0. 0. 255. 141. 0. 0. 0. 0. 0. 0. 0. 255. 252. 0. 0.
      0. 0. 0. 0. 0. 255. 255. 0. 0. 0. 0. 0. 0. 0. 38. 255. 35. 0. 0.
      0. 0. 0. 0. 0. 255. 63. 0. 0. 0. 0. 0. 0. 0. 255. 230. 0. 0. 0. 0.
      0. 0. 0. 226. 255. 0. 0. 0. 0. 0. 0. 0. 226. 255. 6. 0. 0. 0. 0.
      0. 0. 0. 255. 122. 0. 0. 0. 0. 0. 0. 0. 255. 255. 255. 255. 255.
      255. 255. 255. 153. 0. 255. 0. 0. 0. 0. 0. 0. 0. 0. 0. 255. 0. 0.
      0. 0. 0. 0. 0. 0. 153. 255. 0. 0. 102. 255. 0. 0. 0. 0. 153. 255.
      255. 255. 255. 255. 255. 255. 204. 0. 153. 255. 0. 0. 0. 0. 0. 0.
      255. 255. 0. 0. 0. 0. 0. 0. 0. 0. 255. 255. 255. 255. 0. 0. 0. 0.
      0. 0. 255. 255. 153. 255. 255. 0. 0. 0. 0. 255. 255. 0. 0. 0. 255.
      255. 255. 255. 255. 255. 0. 0. 0. 0. 57. 255. 255. 255. 255. 210.
      0. 0. 0. 236. 255. 26. 0. 0. 0. 255. 255. 0. 96. 255. 32. 0. 0. 0.
      0. 0. 223. 191. 198. 191. 0. 6. 26. 26. 26. 0. 0. 0. 255. 57. 191.
      255. 121. 76. 210. 255. 198. 0. 255. 255. 45. 0. 0. 0. 0. 0. 255.
      191. 255. 198. 0. 0. 0. 0. 0. 0. 191. 255. 191. 255. 0. 0. 0. 0.
      0. 0. 191. 255. 0. 255. 255. 0. 0. 0. 0. 83. 255. 0. 0. 0. 210.
      255. 255. 255. 255. 255. 19. 0. 0. 9. 172. 255. 255. 255. 255. 45.
      0. 0. 9. 255. 121. 0. 0. 0. 24. 255. 255. 0. 255. 229. 0. 0. 0. 0.
      0. 32. 255. 0. 0. 0. 0. 0. 0. 0. 0. 127. 255. 0. 0. 0. 0. 0. 0. 0.
      60. 255. 25. 0. 0. 0. 0. 0. 0. 244. 255. 19. 0. 0. 0. 0. 0. 0.
      255. 255. 0. 0. 0. 0. 0. 0. 159. 255. 134. 0. 0. 0. 0. 0. 0. 255.
      134. 0. 0. 0. 0. 0. 0. 0. 255. 255. 255. 255. 255. 255. 255. 255.
      255. 255. 0. 0. 0. 0. 0. 69. 255. 255. 0. 0. 0. 0. 0. 0. 23. 255.
      18. 255. 0. 0. 0. 0. 0. 38. 255. 13. 89. 255. 0. 0. 0. 0. 13. 255.
      0. 0. 178. 255. 0. 0. 0. 0. 255. 179. 0. 0. 179. 255. 0. 0. 0.
      255. 217. 0. 0. 0. 179. 255. 0. 0. 206. 255. 0. 0. 0. 0. 0. 255.
      0. 0. 242. 255. 255. 255. 255. 255. 255. 255. 255. 255. 0. 0. 0.
      0. 0. 0. 178. 255. 0. 0. 0. 0. 0. 0. 0. 0. 179. 255. 0. 0. 0. 8.
      166. 255. 255. 255. 255. 76. 0. 0. 0. 255. 140. 3. 0. 0. 26. 255.
      255. 0. 179. 255. 0. 0. 0. 0. 0. 128. 255. 0. 0. 0. 0. 0. 0. 0. 0.
      140. 255. 0. 0. 0. 0. 179. 179. 179. 255. 166. 8. 0. 0. 0. 0. 179.
      179. 125. 179. 255. 255. 0. 0. 0. 0. 0. 0. 0. 0. 0. 255. 178. 255.
      115. 0. 0. 0. 0. 0. 0. 229. 255. 178. 255. 26. 0. 0. 0. 0. 140.
      255. 161. 0. 76. 255. 255. 255. 255. 255. 255. 8. 0. 255. 255.
      255. 255. 255. 255. 255. 255. 255. 255. 0. 0. 0. 0. 0. 0. 0. 0.
      255. 178. 0. 0. 0. 0. 0. 0. 0. 223. 255. 0. 0. 0. 0. 0. 0. 0. 129.
      255. 14. 0. 0. 0. 0. 0. 0. 27. 255. 108. 0. 0. 0. 0. 0. 0. 65.
      255. 229. 0. 0. 0. 0. 0. 0. 0. 255. 255. 0. 0. 0. 0. 0. 0. 0. 236.
      255. 0. 0. 0. 0. 0. 0. 0. 127. 255. 9. 0. 0. 0. 0. 0. 0. 25. 255.
      106. 0. 0. 0. 0. 0. 0.</data></samples>
  <responses type_id="opencv-matrix">
    <rows>152</rows>
    <cols>1</cols>
    <dt>f</dt>
    <data>
      4. 3. 9. 1. 7. 5. 6. 4. 7. 2. 8. 7. 9. 1. 8. 3. 5. 6. 9. 3. 5. 7.
      8. 9. 4. 1. 4. 5. 7. 9. 1. 2. 8. 4. 7. 1. 2. 9. 4. 7. 6. 6. 2. 4.
      6. 9. 3. 1. 8. 2. 1. 9. 1. 2. 8. 5. 3. 2. 8. 5. 2. 3. 7. 8. 6. 9.
      9. 4. 5. 1. 6. 3. 8. 6. 2. 7. 2. 6. 8. 4. 7. 3. 4. 8. 2. 7. 6. 2.
      9. 4. 1. 5. 3. 9. 8. 6. 1. 8. 1. 7. 8. 2. 4. 1. 8. 6. 4. 2. 3. 4.
      3. 9. 8. 6. 9. 2. 3. 4. 6. 7. 6. 2. 5. 6. 2. 8. 2. 5. 1. 8. 6. 9.
      2. 7. 4. 4. 3. 6. 8. 9. 8. 4. 2. 1. 1. 7. 5. 6. 2. 4. 3. 7.</data></responses></opencv_ml_knn>
</opencv_storage>
